----------Weights------------
0.5887641 0.4866388 1.0129671 0.2730805 0.5162499 0.3785437 -0.0425690 0.6499914 0.4029330 -0.0617544 0.3248764 0.1141706 1.1065508 0.9236606 0.1079547 0.2178558 -0.0144058 0.7152465 0.7250027 0.3872080 0.2095678 0.1267373 0.4885679 0.8743345 0.1847236 0.1487584 0.3948233 0.3765894 0.2816415 0.8118454 0.6039199 1.0159942 0.1394497 0.8504489 -0.1930370 0.8631666 0.6810175 0.4766859 0.3477831 0.3148902 0.4510606 0.4708613 0.4696602 0.2304855 0.4511010 0.1486999 -0.0082347 0.1808148 0.7475926 0.4534473 0.2065605 0.3391007 0.7608309 0.4992082 0.3037211 0.9716017 0.5850722 0.3905755 0.5869718 0.5419983 0.6511909 0.3801931 0.0768918 0.7861605 1.0239636 0.1570603 0.4699843 0.2579678 0.3329199 0.4774927 0.2318718 0.6514806 0.8040959 0.9834546 0.0914870 0.4410334 0.9383403 0.6695600 0.9645085 0.5255276 0.5665238 0.1688800 0.5409415 0.9725606 0.7974211 0.2820367 0.2379812 0.8319208 0.2058619 0.4709997 -0.0274624 0.5508544 0.1570473 0.8727507 0.0673869 0.9592434 
0.5355327 0.2344623 0.9518029 0.4467636 0.2724340 0.8775948 0.6485272 -0.0007028 0.2373972 0.7993763 0.3306239 0.2963339 0.4986723 0.1633249 0.1821452 0.4714865 1.2006999 0.7990801 0.3099183 0.6979979 0.7737452 0.9744488 0.5779882 0.6282841 0.8111099 0.7662252 0.7622862 0.5753598 0.4880093 0.6063735 0.3678652 0.0340717 0.5201607 0.6058509 0.3661908 0.2008446 0.9438015 0.4131069 0.5326260 0.3093569 0.2732922 1.0057392 0.1314255 0.5505081 0.2879483 0.2753513 0.5487368 0.4656422 0.3081832 0.4770447 0.7361113 0.4079286 0.6300706 0.5947249 0.8915452 0.5789638 0.7753086 0.7738525 0.0171422 0.3633755 0.8588291 0.5840257 0.5305215 0.3606622 0.5923913 0.4729199 0.7230198 0.7902333 0.3475435 0.5395888 0.6319652 0.3014583 0.2298523 -0.0028810 0.4229337 0.4836880 0.1426516 0.3961342 0.6368749 0.7305379 0.9620406 0.1085629 0.9474720 0.0755021 0.9368029 0.4241566 0.4300691 0.0619308 0.7666344 0.8877400 0.3892371 0.3705385 0.7657872 0.4321965 0.3893758 0.2264019 
0.8989709 0.1128510 0.9776970 0.2670859 0.5183302 0.4923736 0.5268810 0.8195462 0.2484067 0.4092804 0.7747857 0.2036425 0.2694263 0.6102594 0.2756310 0.1427959 0.6980147 0.6913678 0.9219423 0.2597726 0.5834965 0.2078307 0.1394780 0.9155405 0.6274610 -0.0885248 -0.0040962 0.3099032 0.9261248 0.8142085 0.2715190 0.9969483 1.0100051 0.4425107 0.0625486 0.1716046 0.3390568 0.4105871 0.2310774 0.9387400 0.1546864 0.1988741 0.9437633 0.1242760 0.7618181 0.3094867 0.6647095 0.7501965 0.6785467 0.7631134 0.7102909 0.2342518 0.4155490 0.5939614 0.9827029 1.0705271 0.2874831 0.9222242 0.7855350 0.6834010 0.3930654 0.7187304 0.4964741 0.5215630 0.5959636 0.2021300 0.9571988 1.0692537 0.7923844 0.8513782 0.4320643 1.0309345 0.4262668 0.3991192 0.8102631 0.5198735 0.5597355 0.7072956 0.8970506 0.4373633 0.9296521 0.6852536 0.7610645 0.8500590 0.2957971 0.7743741 0.5748028 0.9344018 0.5952313 0.7972354 0.1213291 0.2033537 0.3799266 0.2681483 0.1076080 0.6372073 
0.4804905 -0.0101339 0.5137042 0.4644580 1.0549116 0.0551093 0.4552497 0.3673136 0.7394898 0.9489799 0.4981349 -0.0416670 0.8744836 0.4454499 0.1403689 -0.0550842 1.0127175 0.7831577 0.6845142 -0.0117573 0.6634744 0.8892411 0.4422015 0.5086795 0.3235213 0.6407810 0.9717641 0.0743725 0.7103901 0.5914422 0.1044545 0.4185841 -0.0137819 0.3637657 0.3084421 0.0976241 0.9561726 0.1995290 0.0195915 0.6258474 0.0667511 0.4602887 0.0950482 0.2545034 0.3480319 0.8470414 0.1792587 0.4337899 0.8327816 0.1741920 0.6285844 0.1459294 0.6943008 0.9823179 0.4025825 0.8552737 1.2499837 0.4571833 0.7005341 0.5316998 0.1987214 0.5960005 0.9619589 0.8024630 0.3330145 0.4535663 0.4438170 0.6486904 0.3439002 0.1974915 0.2755909 0.7866509 0.5913567 0.6442152 0.3904140 0.3621842 0.3697054 0.4350584 0.0321931 0.6559190 0.7959448 0.3652934 0.1913140 0.5194049 0.0558405 0.3441104 0.5103813 0.6231485 0.0548242 0.5371434 0.7085998 0.6330531 0.0552655 0.0341694 0.9142511 0.5084518 
0.3636481 0.5148951 1.0099997 0.2081279 0.4349297 0.8615187 0.6442789 0.5241284 0.6243348 0.0079976 0.8766118 0.0517497 0.1306467 0.9956061 0.3656837 0.2023353 0.0863004 0.0970862 0.8239640 0.7343649 0.4903174 0.6326507 0.4271579 0.5736467 0.2103970 0.0155458 0.1752457 0.9049989 -0.0164008 0.3633128 0.7719243 0.8240168 0.4637889 0.7193167 0.0045454 0.2751431 0.4745033 0.0353159 1.0834076 0.3268033 0.4204698 -0.1658032 0.5424267 0.9275216 0.6166779 0.2588079 0.2907486 0.0796245 0.5426942 0.3216237 0.2843309 0.8127132 0.8152493 0.1198134 0.3730124 0.5311268 0.2279953 0.6044661 0.5280147 0.5434839 0.5647356 0.5654653 0.3857307 0.8336997 1.0157020 0.8288966 0.1857004 0.2109777 0.1774284 0.7527913 0.9552880 0.7482675 0.7008887 0.5628324 0.9128722 0.5409196 0.6289012 0.5960560 0.6895098 0.5373483 0.3904820 0.6784098 0.3893193 0.9898393 0.8747673 0.3200835 0.3590085 0.9538255 0.9520302 0.3861370 0.4583275 0.5153906 0.8252193 0.0383872 0.6346654 0.4724526 
0.8123228 0.7734448 0.6724488 0.6317337 1.1004913 0.6157520 0.6064694 0.2951174 0.9346113 0.7413468 0.7702772 0.4452487 0.8222187 0.5292464 0.7782367 0.3499404 1.0810873 0.4052412 0.8437670 0.5773154 0.5497455 0.8289798 0.0876608 0.0685862 0.6044025 0.5794237 0.7788161 0.6816176 0.9436570 0.1861065 0.7329252 0.8678238 0.0126989 0.5696045 1.0209550 0.6158894 0.8305003 0.8003675 0.1313554 1.0278452 0.1833225 0.8016748 0.0801677 0.1195379 0.6492829 0.1755538 0.5636148 0.7705157 0.6742393 0.3577787 0.7584607 0.3267000 0.5985233 0.6445900 0.3995780 0.8439266 1.0183260 0.3202970 0.0656176 0.7923307 0.2770111 0.4769059 0.9356207 0.1404685 0.8736664 0.9872141 0.2147600 0.4479112 0.1490360 0.0290943 0.4943439 0.4322648 0.6452055 0.3610171 0.9274465 0.2499700 0.2176988 0.8521625 0.2606018 0.5944413 0.0397011 0.6562362 1.1402934 0.5359869 0.1565548 1.0417247 0.7056570 0.4546098 0.5608568 0.5442723 0.1631986 0.9076379 0.4020078 0.7723982 0.5185478 0.5571859 
0.6830138 0.1517396 0.5976782 1.0139100 0.2531814 0.8355224 0.9216600 0.2440967 0.3842836 0.3600703 0.6345709 0.0648701 0.8371933 0.2516553 0.8402184 0.7896874 0.4218687 0.8981390 0.7046233 0.7721464 0.8625540 0.7364994 0.3681931 0.8647857 0.7977117 0.7566471 0.1162651 1.0324122 -0.0051787 0.6789762 0.9281711 0.9525930 0.1721729 0.9000487 0.2896019 0.4245312 0.0681276 0.5753780 0.6281461 0.3661999 0.7315876 0.3095750 0.9057753 0.3701752 0.9872143 0.2607643 0.3790264 1.0105623 0.4092566 1.0199267 0.1881926 0.6691020 0.6128465 0.7854123 0.2064311 0.7761523 0.4347005 0.6351683 0.2565542 0.7828276 0.5788046 0.4284622 0.8235726 0.5204473 0.7623896 0.5433737 0.8068760 0.7896059 0.4611835 0.6301496 0.2169088 0.4802104 0.7025824 1.0370582 0.3216513 0.3594441 0.4215776 1.0241160 0.2438687 0.2175932 0.1391018 0.4297434 0.5524508 0.5455672 0.7470775 0.4871154 0.0075570 0.1956352 0.1769512 0.1171690 0.0053656 0.0587854 0.8988188 1.0086123 0.7650683 0.9014330 
0.4475319 0.4820403 0.5529070 0.1269133 0.2268067 0.7021210 0.1850464 0.1068899 0.0099264 1.0647499 0.6837741 0.0296596 0.6747130 0.7258938 0.7436047 0.7184214 1.1123974 0.1948510 0.7078730 0.2255836 0.7887078 0.8715420 0.3698703 0.3620879 0.5967355 1.1061371 0.8857226 0.2483261 1.0191773 0.0389772 0.5844103 0.8017371 0.5593413 0.6325243 0.5764742 0.1637981 0.8862112 0.1536295 0.0681420 0.5018496 0.7024492 1.1935430 0.9178212 0.1092420 0.7276340 0.3499609 0.2730441 0.3917880 0.2542284 0.3409307 -0.1459118 0.6241674 0.1698945 0.3687895 0.8372841 0.6326496 1.2089701 0.1028735 0.1154576 0.1180200 0.8411220 0.6008043 0.4046815 0.8363773 0.1729584 0.4451234 0.4935370 0.3441261 0.7258690 0.6355464 0.1509349 0.8250743 0.7847376 0.5143802 0.4500770 0.3272547 0.2699363 0.4216170 0.3289808 0.4591243 0.0678009 0.6860560 0.5221693 0.0140002 0.4975091 0.0614616 0.8131644 0.7876182 0.3757768 0.8400951 0.9508663 0.3979735 0.5578314 0.6086339 0.8362403 0.5194147 
0.0404776 0.2642246 0.6324004 0.5524350 0.7479061 0.7732643 0.4263073 0.5099953 0.9902496 0.2292896 0.7141474 0.4391837 0.1957460 0.8504893 0.4583421 0.6065843 0.4997459 0.6802738 0.1837213 0.4554420 0.0656656 0.2492176 0.6878378 0.3611104 0.0909308 0.4287971 0.9375402 0.3120607 0.8649587 0.7668809 0.2755430 0.1903054 0.9482739 0.9272611 0.0083270 0.4386618 0.0320844 0.3772868 0.1055283 0.1536142 0.1860747 0.2345151 0.6857677 0.9845526 0.6607475 0.1399138 0.2047932 1.0016117 0.1095230 0.6745692 0.5867369 0.1169813 0.6491763 0.7351172 0.0702675 0.9940987 -0.0205326 0.7320391 0.8372426 0.6867313 0.1553276 0.0374068 0.7278031 0.5500242 0.3148306 0.6554410 0.8289301 0.3759058 0.4056203 0.4118138 0.7594429 0.8937286 0.4129812 0.1177465 0.6189040 0.6173103 0.0556201 0.8342896 0.9203950 0.9649649 0.8164578 0.1514148 0.0207925 0.9253434 0.7343000 0.6919067 0.8120077 0.9117109 0.4307832 0.7373011 0.3405900 0.5780757 0.8692426 0.5103248 0.6775713 0.6287327 
0.3185288 0.2361295 0.6916781 0.0168055 0.7636109 0.7861351 0.9537100 0.5652222 0.1900097 0.0921919 0.5830338 0.4087229 0.2884291 0.3979111 0.2246618 -0.0527552 1.1655773 0.2363644 0.7289762 0.1343091 0.7897646 0.6192060 0.2918349 0.0674733 0.2588792 0.6434936 0.7417094 -0.0348704 0.3960299 0.8445320 0.1954236 0.2020534 0.7618583 0.2983740 -0.0466501 0.8998593 0.4924226 0.5311450 0.7943853 0.3277179 0.8596685 1.0431132 0.3429160 0.1539153 0.1892026 0.8994371 0.9938156 0.2880853 0.2329149 0.2252446 0.4669502 0.6191174 0.7628975 0.9109315 -0.1281325 0.2191065 1.4365051 0.5582344 0.6709147 0.8659001 0.3781047 0.7919490 0.1865286 0.7562270 0.8565361 0.6423342 0.6094844 0.7518560 -0.0994212 0.5547569 0.2414009 0.7673379 0.3677424 0.0970097 0.0437987 0.3746679 0.2305540 0.2393624 0.4340148 0.0952358 0.4740641 0.7518673 1.1132996 0.9840288 0.6416918 0.0069622 0.5979755 0.2502367 0.4299059 0.4123490 1.0137771 0.2268396 0.4287114 0.1561121 0.5577593 0.7205162 
0.2202432 0.2730487 1.0423818 0.5665839 0.6724255 0.8825364 0.2657808 0.8918413 0.2700467 0.7314575 0.0838544 0.6401160 0.4668925 0.2045318 0.2426183 0.2998494 0.4282785 0.6678182 0.6114102 0.5789587 0.0125545 0.4276207 0.3207957 0.9624418 0.5714100 0.7104408 0.8732814 0.8274578 -0.0061499 0.6953770 0.1958027 0.1949440 0.5511715 0.4583665 0.2926158 0.8111545 0.4239286 0.6043230 0.7227250 -0.0635851 0.4870753 -0.2966511 0.0215416 0.1775345 0.7334979 0.4104822 0.2883793 0.5178768 0.2177680 0.5951800 0.5144527 1.0011381 0.4329051 0.9248781 0.1132895 0.3790959 0.1281641 0.1164976 0.8786356 0.3318057 0.8050223 0.5429929 0.9064236 0.4289983 0.0709479 0.8635296 0.4237744 0.3792475 0.1366207 0.3302199 0.6620327 0.9708706 0.6614127 0.4040985 0.3103516 0.8236118 0.6868851 0.5589957 0.4416210 0.7731857 0.9821788 0.3209946 -0.0846432 0.5812501 0.7374705 0.5885158 0.1258217 0.1124615 0.1319857 0.8977576 -0.0803897 1.0106363 0.7200388 0.3253833 0.8807668 0.4628613 
0.7498942 0.5424727 0.8272691 0.3748699 0.7576713 0.0309083 0.1979597 0.8203139 0.3534605 0.1815944 0.8366344 0.8176282 0.0891933 0.7621549 0.9802366 0.1276879 0.3232955 0.7428048 0.5675693 0.6297328 0.3358351 0.2034576 0.1720214 0.9707777 0.8297126 0.8660101 0.9019226 0.6267592 0.0410566 0.1868231 0.7707095 0.7689512 0.2320785 0.4763295 0.9133288 0.9253758 0.0686870 0.2298188 0.2272890 0.7186050 0.7446708 0.4447499 0.0889479 0.1717781 0.4092430 -0.0278697 1.3478537 0.3002582 0.6065394 0.9568275 0.0133955 0.2701659 0.0685110 0.4674844 0.7021999 0.6488780 0.9341737 0.2360722 0.1635380 0.2613265 0.8031871 0.9989649 0.2754168 0.8742138 0.7454909 0.4979251 0.3482590 0.0621391 0.6911252 0.9127910 0.4135871 0.0296629 1.0186792 0.8457295 0.0801371 0.6227505 0.9493288 0.7529230 0.5316592 0.2299425 0.2271323 1.0469531 1.1584455 0.8382659 0.6093608 0.6431991 0.9747217 0.0758311 0.2000990 1.0619873 0.2872005 0.1445874 0.0850458 0.6086252 0.3230899 0.5490722 
0.1175897 0.8983924 0.7217924 0.2081212 -0.1715362 0.2074972 0.0185062 0.9739405 0.3857707 0.8994714 0.2064708 0.8015162 0.7173357 0.3225293 0.3352492 0.0894724 0.3157731 0.7557444 0.6195557 0.1932261 0.5195364 0.4447773 0.8525292 0.6636185 -0.0304002 0.4246357 0.0399312 0.7471176 0.0297469 0.7417058 0.9433879 0.1016931 0.3403478 0.9721238 0.3126124 0.9128455 0.0734529 0.6024836 0.7246042 0.7019458 0.7978709 0.6619316 0.4312893 0.6550633 0.9792935 0.4943693 0.0050915 0.3275107 0.2801559 0.0490684 1.0279937 0.8955231 0.8896601 0.3797165 0.9022151 0.3896688 0.0074203 0.8404974 0.2412743 0.9206958 0.8051813 0.2090891 0.7154370 0.5422522 -0.0398525 0.9188707 0.5967728 0.2612952 0.7792016 0.9328608 0.6558225 0.5558933 0.3625910 0.8036305 0.5165779 0.8110997 0.8319882 0.0269185 0.9010355 0.8593860 0.2355835 -0.0053027 0.0754164 0.2963078 0.6717747 0.2815571 0.0479925 0.3989563 0.8485923 0.1135909 0.2714270 0.3502488 0.9862557 0.9587509 0.6235439 0.2918210 
0.3442551 0.8262479 0.6796962 0.1716805 0.8756658 0.1104538 0.2657121 0.2199752 0.6852000 0.3828001 0.8966124 0.0541055 0.5662799 0.7121546 0.1306511 0.5589225 0.4244433 0.3252820 0.2955208 0.1964446 0.1087259 0.3020458 0.2435489 0.5182483 0.9209785 0.6805035 0.7060649 0.7056779 0.4990011 0.4308337 0.4578482 0.4171820 0.7745339 0.7752136 0.5674072 0.5201011 0.5032762 0.9236581 0.5478542 0.2122471 0.6475753 1.0049999 0.7920933 0.6266650 0.7299302 0.4983009 0.3534171 0.6964553 0.8749241 0.8646575 0.4373069 0.7749363 0.8585061 0.2037379 0.1458313 0.7436951 0.3760323 0.8343496 0.2424082 0.4608930 0.3418981 0.5384457 0.1613825 0.3353667 0.1485761 0.4499989 0.5308067 0.1081803 0.7438268 0.4877549 0.7309928 0.7642871 0.9248870 0.2093903 0.5421840 0.2861520 0.7221325 0.2570256 0.0495932 0.0800408 0.8232379 0.8871542 0.4559857 0.7682443 0.7897691 0.6138848 0.9376011 0.8225497 0.2349401 0.6206871 1.0893340 0.1438846 0.7332015 0.2935964 0.3810256 0.2459320 
0.2710969 1.0367405 0.0478462 0.2054905 -0.2630648 0.9802885 0.7870645 0.6174134 0.9597965 0.1106762 0.9784158 0.7065839 0.3269019 0.1586391 0.8323589 0.2065449 0.0110947 0.3302554 0.2304778 0.6743028 0.7933596 0.0635808 0.2437823 0.4486728 0.1194398 0.4478991 0.2012941 0.4579153 0.8951771 0.4972636 0.9085011 0.7802279 0.7186098 0.5168750 0.3797010 0.3510932 0.8147489 1.0131932 0.1279892 0.6952968 0.9373475 -0.1032416 0.7316493 0.9273966 0.8131315 0.5386414 0.2821943 0.7791659 0.9337206 0.9537196 0.7446754 0.2937364 0.5078952 0.9480037 0.7415619 0.1567981 -0.3037710 0.6748790 0.8816295 0.3313302 0.6710097 0.4089157 0.6862669 0.9980915 -0.0260019 0.3187542 0.9852681 0.9323447 0.5667488 0.4863777 0.4463223 0.2045895 0.7712730 0.5359947 0.9618402 0.9831630 0.2157711 0.2683531 0.9824959 0.5381496 -0.1317241 0.5493095 0.1090836 0.3142289 0.6496523 0.9798045 0.0130666 0.5465084 0.5126754 0.4172144 0.6661232 0.3252120 0.9984943 0.6907007 0.3053756 0.9092620 
0.1597092 0.2136601 0.1857194 0.8342406 0.2371319 0.0168954 0.7627522 0.2437819 0.3392743 0.4367699 0.4067938 0.3340455 0.1964141 0.6754314 0.2044228 0.2157148 0.6764497 0.6223163 0.0149494 0.9209759 0.2540130 0.5604969 0.7843419 0.1389707 0.9556209 0.3904088 -0.0295314 0.2889252 0.2670222 0.1683096 0.0665717 0.3826969 0.4477360 0.5235552 1.3758786 0.0326853 0.4464107 -0.0060916 0.4271040 0.4435637 1.1810400 0.1264954 0.3278882 0.1234474 0.6998199 0.4430093 -0.4691489 0.8376720 0.4458511 0.5243692 0.9863146 0.4318153 0.4528297 0.2227554 0.7808297 0.7605228 0.7982364 0.5951347 0.6758629 0.8838500 0.3522562 -0.2061428 0.8107342 0.0778932 0.4189223 1.0260411 0.3105982 0.0893935 0.1108501 0.3343097 0.3308793 0.7009497 0.3389521 0.7059628 0.4311505 0.0415098 0.8680514 0.6056398 0.1687674 0.6358226 0.2867214 0.3554398 0.3874064 0.8945891 0.4905780 0.9322444 0.7819997 0.3759447 0.4297967 0.2575887 0.7126978 0.0906389 0.7340934 0.4715152 0.5342530 0.8838547 
0.3616435 -1.3765421 0.5144244 -1.0235444 0.6057680 -0.9301543 0.9668347 -0.0495522 1.2320553 -1.4789854 0.9188232 0.6926483 0.5773194 0.4874818 -0.2626687 2.4272588 0.0620019 0.1371965 -0.6536771 0.1487822 0.4581875 -0.8128621 -0.9555074 -0.8604080 -0.4641432 0.2022396 -0.8856653 -0.4415989 -0.6262054 0.2861555 0.2539889 1.4024375 0.8307071 -0.8772700 1.4666690 -0.0220648 -0.4072102 0.3817834 -1.5065702 -1.4009640 0.2363760 -0.1317547 0.7701133 0.1437837 0.7220730 -0.8410259 1.8781893 0.9820104 -0.8646430 -0.4425537 0.7380839 -0.1211007 -0.7254989 0.9224336 0.1953904 -1.2561394 -0.3690208 0.1522685 0.2091325 0.9201943 0.1282345 -0.9473144 0.4638655 0.3759456 -0.5164322 -1.6679993 -0.4899723 -0.1514608 -1.1947630 -0.5400044 -0.5304001 -0.1542986 0.7158209 0.2268369 0.4629689 1.0342646 -0.6390154 1.0158193 1.4978382 0.2192484 0.3098720 0.7232026 0.7049589 -0.0642477 0.8659262 0.0537869 0.3508977 0.7956249 -0.1029157 2.3979359 -1.7841906 0.0280619 -0.4098998 -0.6291834 1.3473281 -0.4052345 
1.9835310 0.6642838 0.9835885 0.9356691 -0.7106768 -0.5674529 -0.6837916 -0.7205920 -0.0582767 2.6910135 0.2900435 -0.9228067 -0.3335094 0.0749592 0.1812089 0.4436398 1.4671168 0.3540078 0.7569235 -1.0184730 0.1214418 1.2589277 -0.3162602 1.1682654 -0.0581371 -0.7079845 1.3135809 0.3549274 2.4409973 1.6448783 0.4917743 1.0166312 -0.1023783 0.2487045 0.9836162 0.2627210 2.1268466 -1.3896764 0.2554136 1.1893428 0.4703613 0.6051077 0.1497205 -0.3775112 0.2503428 0.9090879 0.2447245 0.9461925 -0.3750921 0.6422223 -0.1984145 0.8149137 0.1031782 0.0590237 0.6251736 0.9726162 -0.8670641 1.1562379 -1.6283944 -0.3307229 2.5591936 -0.7655568 -0.2795509 0.6151560 2.6317076 -0.5432252 1.5102142 0.6618986 0.4082065 -0.7871477 1.4287397 -0.8371656 1.0336188 0.6223551 -2.2569576 -0.8432380 0.7593814 0.2228640 -1.2920167 0.5457352 -0.2741954 1.4415231 0.8048736 1.2223827 -0.1977169 -1.0923304 0.5681855 1.1041843 -0.2289569 0.2038757 0.2991190 0.0756913 2.5932998 2.0934732 -0.8565474 -0.3144091 
-0.3386228 0.6807791 0.3528545 -0.4865403 0.7516384 0.0237775 -0.0657392 -0.3071317 -0.2020256 0.7355574 -0.6355965 0.8364870 0.1032590 -0.2110411 0.1011598 -0.2969162 -0.5083157 -0.1165484 0.4715704 0.0816835 0.3996480 0.7697394 -0.6964770 0.2019011 -0.1684243 0.0280282 -0.4999997 0.7069857 -0.2638966 0.5176673 -0.5761075 -0.0846509 0.7540529 0.0258429 0.1235502 -0.3943119 0.4346255 0.0563070 0.1465261 0.1108915 -0.1353009 0.7428101 0.1596794 0.0635426 -0.1272878 -0.2198764 0.0546106 0.7455513 0.3305263 0.0618335 -0.4998666 0.6162065 0.0210244 -0.7355601 -0.2992494 0.1004679 -0.5058020 0.0330428 0.0000676 -0.4002519 -0.3502972 -0.6213211 -0.4216996 0.1721588 0.6711454 -0.1293804 -0.2224193 1.2047425 -0.3091319 -0.1216147 -0.0588320 -0.1878776 -0.2337636 -0.2568367 0.3802134 -0.1320040 -0.4917758 -0.0952301 0.4068178 0.0960846 -0.4419852 -0.0064580 -0.0195202 -0.2298784 0.2366313 -0.3820875 0.1572373 -0.8416526 0.7121514 0.3603073 0.5691030 -0.2112627 0.8018938 0.7623166 0.0831990 -0.6229528 
-0.1949825 0.1796594 0.2519703 0.4034353 0.4473353 -0.3855146 0.6316168 -0.9569468 -0.2961161 0.1964307 0.2488003 0.0851795 -0.4491680 -0.0717251 -0.4232850 1.3206406 0.6456076 -0.5782388 0.3979434 0.0793633 0.3910264 0.1558794 0.5897268 0.0366136 -0.5489810 -1.9221082 -0.6036044 -0.0729465 0.3829030 -0.1131666 -0.1099955 -0.3204409 -0.0590965 0.2634160 -0.0940444 -0.0089817 0.2131297 0.7494263 0.0483114 0.8286076 0.7490820 0.3983089 0.7793933 0.2578160 0.5471422 0.6135460 1.3642205 -0.7897048 -0.4624928 0.7449935 0.7453030 0.1603608 -1.0538035 0.0275721 0.3769220 0.4421442 -1.1739134 -0.2538110 -0.5446618 0.9225814 0.8967362 -0.4834606 0.6668915 -0.0929347 0.4588272 -0.1227161 0.1941270 -0.0739605 -0.1305498 -0.2212415 -0.1279429 -0.2007389 -0.3273632 0.1317789 0.5616288 0.7740862 -0.0298636 0.2179831 -0.2677251 -0.3122172 -0.4264989 -0.1992910 -0.2106659 -0.0514981 0.6664016 -1.0969780 0.5560805 -1.1868975 0.4709786 0.3183517 0.1070002 -0.1292092 0.4809444 1.1879136 0.5988395 -0.0690257 
0.5585362 0.7523627 0.7336619 -0.5339258 0.4436689 -0.2348408 1.8567393 -0.5529815 -1.2479884 -0.3016618 0.2284374 1.2364885 2.1477975 0.7341284 -0.3337414 1.0493458 -0.2059613 0.4341705 1.0627621 0.6729434 1.0620861 0.4436657 -3.1686904 0.2914003 1.8182556 0.1828467 -0.5897125 -1.5584704 -0.0813104 0.5925613 -0.3408405 0.4088448 -0.3143435 -0.7321522 1.2886475 -1.0582796 0.4931161 1.9972858 0.1231208 0.5747003 -0.3402860 1.0258267 -0.2145764 -0.5802862 -0.2299763 -1.9614827 2.0049314 0.3526067 0.5050469 0.3302987 0.2709931 -0.4115366 -0.4623710 1.6197796 0.6663119 0.2286799 -0.2183687 -0.4446394 0.6699912 0.5035821 0.4635127 -0.9175827 -0.2202083 0.4901084 -0.2156450 0.0732146 0.5948270 0.3935322 0.1181378 0.3402685 0.9372592 0.0630092 1.0446831 0.8978304 1.0382221 -0.1381644 -0.1865050 0.4833811 2.2000025 0.3753436 0.4862890 1.2383688 -0.0181589 0.8985851 0.7161862 -1.3804124 0.4580891 0.8537139 1.4750333 1.3160348 -1.0332697 0.0451726 0.5354737 -0.2974305 2.0485240 0.7702223 
0.4601785 0.1626974 0.1760757 -0.0722914 0.1649985 -0.0231900 0.3953106 -0.0417318 -0.0008019 0.5300925 0.4255536 0.0033714 -0.4943172 -0.0637851 -0.6604427 0.1109718 0.3327193 0.1114660 0.0648970 -0.1282594 -0.2448405 0.8090500 -0.4806577 0.7492747 -0.5904615 -0.1101835 0.3801599 -0.1118842 0.0963588 0.1627239 0.5091692 0.2801332 0.2158654 -0.3998233 -0.4124114 0.4853315 0.5285316 0.1866467 -0.7368932 0.7219801 -0.5068027 0.4388910 -0.3951908 -0.2718627 -0.2790577 -0.1116507 0.1270354 -0.2722874 0.3126108 0.0091502 0.0350008 0.2588251 -0.4696613 0.8886138 0.6213135 0.5640469 0.7556985 0.6549035 0.1192765 0.4605833 0.2064149 -0.0705689 -0.2433655 0.0833964 0.5990036 -0.9191074 -0.7062409 0.3898424 0.3461204 -0.7969079 -0.0448827 -0.1908731 0.2249786 0.6677261 -0.0651788 -0.4674244 -0.1914695 0.0897338 0.2316125 -0.3778326 -0.5647464 -0.4686816 -0.4788822 0.1638395 0.4348702 -0.0837139 0.7646795 -0.3548286 0.0765281 -0.0795865 -0.0837177 -0.7378587 0.4247935 0.0491304 0.0994182 -0.4801625 
0.4229621 0.5326768 1.0527784 0.0260389 0.6673291 0.1355011 0.3436067 0.0819872 -0.1545952 -0.8954104 -0.4774745 0.7801148 -0.1705942 0.7523188 -0.3134894 0.2467329 -0.3629421 0.8476252 0.2272280 0.1115161 0.6946967 0.0643908 -0.3815577 0.2444619 0.0825147 -0.5434017 -0.4149151 -0.0349646 -0.6290887 -0.4348373 -0.2559452 1.1226840 0.0809334 -0.3627192 -0.3799236 -0.2692094 0.0203223 0.7686768 -0.1019389 -0.0950448 -0.7753374 0.7760472 -0.0809695 -0.6449500 0.1219757 0.1178009 -0.1594076 -0.1042709 -0.6626333 1.2672485 0.0803045 -0.6120360 -0.6251390 -0.8105734 -0.0269513 -0.1405557 -1.2635619 -0.0721470 0.4290448 0.1881252 -0.2261453 0.1624953 0.3951175 0.4849390 -0.2657247 -0.6043898 -0.1148592 0.6620581 -0.2773650 -0.2052347 -0.3366468 -0.1634941 -0.7674152 0.7582900 0.3010770 0.2225708 0.0281709 -0.2747210 0.4737883 -0.3526892 0.3208500 -0.3481351 -0.1518712 0.3457761 -0.1647781 0.0846424 0.2960212 -0.5904211 0.7149204 0.1457208 -0.0494400 0.0289162 -0.3275686 -0.5761675 -0.0118116 0.1942007 
0.7605722 0.0387866 0.2449201 0.0590182 0.4942497 0.0222390 0.4018721 -0.4851218 -0.2347952 0.2950085 0.4276612 0.0114026 -0.0234777 0.3892003 -0.2608524 0.4044725 0.6855011 0.2208138 0.2187814 0.6094689 0.0281476 0.8584185 -0.1212093 0.3228045 -0.0759431 0.3844885 1.1191638 0.7980213 0.1596542 -0.2156654 0.5959333 0.4676748 0.1264284 -0.2406758 0.0995168 0.1858840 0.3845747 0.6918861 -0.7783374 0.0528534 -0.1158586 0.3012544 0.9204121 -0.0363727 -0.1017969 -0.0765176 0.2216122 0.2946549 0.3542204 -0.2447638 -0.0120509 0.4190517 -0.3503892 0.3751112 0.4467477 0.5187267 0.5111120 0.5094430 0.4016404 0.7831947 0.5365946 -0.3478971 0.4157122 -0.3870279 0.2504212 -0.9629932 -0.4457373 0.0793841 0.7183127 -0.2182996 0.3257951 0.3858764 -0.3761775 0.3073940 0.1534863 -0.0426983 -0.4293808 0.3666588 0.5891503 -0.6724407 0.2942276 -0.0974495 -0.3513438 0.7376849 -0.2152464 0.7581112 -0.0786080 -0.1726202 -0.1781183 -0.4504169 0.3595637 -0.1804235 0.3719049 0.1004625 0.5246938 0.2959429 
0.5931412 0.8634085 1.6114372 0.9078205 1.1999825 0.0203302 0.9338172 -0.9670381 -0.1430832 0.1552048 -1.2545758 0.9950958 -0.1299564 0.7058416 -0.7494837 -0.3676738 0.3142559 -0.3259193 1.2994890 0.9120065 0.8033779 0.6981973 -0.2957008 1.1690842 -0.1923300 -0.1483696 0.3870669 0.6465837 0.0157703 -0.8737787 0.2283376 -0.9151796 0.3587110 -0.2983618 0.2754214 -0.0160036 -0.5118562 -0.3583297 -0.6215636 1.1684769 0.3957632 1.2074738 0.5209748 -0.4617471 -0.0836122 0.3243673 0.5801437 -0.1638769 -0.9631924 -0.0042780 -0.6598140 -0.0605199 -0.0237850 1.3168367 0.0278805 1.1125881 0.0609580 0.6538832 -1.0078490 0.0558699 0.0409420 -0.4309877 -0.2266414 0.2141476 0.5811188 -0.9176429 -0.5944165 -0.7994767 0.8181485 0.0036183 -0.5142714 0.4884547 0.2041420 0.2059202 0.5833905 0.4422168 0.2248232 0.4264556 -0.8160128 0.1552638 -0.8628307 0.2138092 -0.1073615 -0.0651010 -0.8660546 -0.1609480 0.6156881 -1.2542959 0.0891629 -0.3742429 0.8138622 -0.5234048 -0.0792442 0.4434287 1.4083598 -0.5137427 
0.4494885 0.1381902 0.6413362 0.1104640 0.1893344 3.0589527 0.4258636 0.9489052 2.0949825 0.6423144 0.5854309 0.6152950 1.6605679 1.3222923 0.8878710 0.3689893 0.1235446 1.0024889 0.1646532 0.8547647 0.8424433 0.8090823 1.8296938 0.5160272 1.2765483 0.8477947 -0.3671597 1.6283243 0.9937013 0.9929934 0.9979540 0.4544114 1.5156086 1.6382963 0.3623613 0.6210005 0.7354322 0.9654931 2.1917885 0.2381711 -0.6363965 0.4560013 1.3658998 0.5103162 0.9173396 1.2111281 1.8705322 1.2206250 0.5165771 1.0815296 1.0523587 0.5022117 0.8793281 0.2875563 0.6867403 0.9200989 -0.2393573 0.4469461 0.5814829 0.9761569 0.7270853 1.1962528 1.1498658 2.2095444 1.0267784 1.2133935 1.1004267 0.1232283 1.0004606 1.4549749 1.3526014 2.1361527 1.4284878 0.6148143 0.4871475 2.4821813 0.3668055 -0.1592029 1.3034562 0.9204772 0.8482745 1.1651039 1.5340923 1.0702011 1.1396927 1.2394861 1.2613327 0.6654790 0.5440048 0.4412774 0.3767378 1.6704313 1.0322517 1.1290672 0.0188499 1.5116695 
0.6453927 0.7144695 1.1027000 -0.0196017 -0.0952869 0.6728859 1.3034428 0.7998943 1.1188479 0.3820208 0.4895405 0.1886867 -0.2757957 0.6424834 0.1862771 -0.6328445 0.6933862 0.7941458 -0.0619842 0.1495847 0.4655597 0.1627309 0.1646476 0.8739444 1.1980518 0.6364024 -0.8162429 0.0145264 0.9334237 0.2654923 0.5543285 0.5408591 1.1585064 0.9134213 0.3547976 0.4427462 0.6015530 0.6443253 0.7701983 0.8045604 0.5367105 0.0099733 0.5686501 0.4029300 1.6606185 0.4532025 0.3690851 0.3017629 0.3382793 0.9422328 0.1479737 0.5869773 0.8071936 -0.1619069 0.4210503 0.5152131 -0.6269658 -0.0239545 0.2945498 0.7780861 0.4090550 0.1947882 0.7830905 1.2218264 0.1325271 0.3613524 0.2863969 0.2148316 0.0407808 -0.1122857 0.6367475 1.1426929 0.4149483 1.1682526 0.2856697 1.3523624 0.2987996 0.5957627 0.2746926 1.2360309 -0.3840664 0.4692419 -0.4797182 0.2622463 0.7395581 -0.6646655 1.0062165 -0.3848800 0.7658463 0.8515805 1.0469061 0.3991891 0.1259304 1.0789770 0.7804301 0.3245929 
0.6375720 0.6573600 1.4237737 1.2056382 0.2739606 0.9931321 0.2422950 0.2077376 0.3066172 1.4022175 0.1486531 0.0644698 -0.3422790 0.6504804 -0.1332073 0.2931309 2.2417565 1.8448811 1.1810840 0.0613356 1.1460720 1.1428746 0.0335351 1.3974116 0.9893112 -0.1063179 0.4745580 0.9196049 1.4060854 0.2944613 0.6994221 0.3796129 0.8374346 0.9730392 0.5263386 0.9447834 0.2414663 0.3092885 1.5868495 0.8000522 0.0313130 1.3331532 -0.0671093 -0.2775785 1.5314203 0.7037600 0.0741662 0.1988701 -0.1170583 1.1159050 -0.1188374 0.2785388 0.7566820 -0.3554089 2.4503592 1.6745933 -1.1557566 0.8889222 -2.5453592 -0.0214518 2.5892548 -0.3593016 1.0928223 0.5497994 1.4733186 1.0405649 1.1991114 0.8560984 1.1119389 -0.2033841 0.6250059 0.2187079 0.3892266 2.8442282 -1.9418273 0.8498069 1.0437397 0.9064336 -0.6347746 0.3156228 1.0168341 1.0988248 0.2247780 2.1117769 -0.6352894 -1.0230582 1.4054834 -0.1055124 1.4099349 -0.1263200 1.1920501 0.9594613 1.5575814 1.7479872 0.0736450 0.2426744 
0.7818557 0.6218141 0.4768056 -0.2020781 0.2180829 0.9010165 1.0145887 1.5021699 1.4659040 0.4884686 0.9937551 0.2452610 0.3649349 0.9159268 0.9077085 1.9670423 0.3016811 0.6989126 0.3254169 0.5453244 1.1094640 0.6264863 0.7565689 1.1585712 1.1222091 0.6055078 -0.9608398 1.6463601 0.8546905 1.1584246 0.9614667 0.7575649 1.3007980 0.8500974 1.8675133 1.0098137 0.5867605 0.9816418 1.4755535 0.1038960 1.0210302 0.4388805 2.0393404 1.9208610 1.4900914 0.9795112 1.0732920 0.9851707 0.0784562 1.0517210 1.1377048 0.9967765 0.3652727 0.7598625 1.2115132 0.9600734 -0.5567514 0.1949852 1.1486985 0.6417697 1.0990449 1.2109650 1.1827810 1.5299172 0.6151416 0.8036480 1.5367992 0.9240095 0.4102080 1.3261032 0.6278934 1.8495146 0.4595930 0.8298959 0.5933476 1.6535097 0.2865800 1.3021964 0.9375956 1.3888233 0.6206409 0.6406905 0.4085896 0.9890218 1.0030148 1.2255151 0.2948829 0.4965485 0.5144647 1.5576873 0.7714091 0.9519334 1.1523983 1.0171485 1.0928562 1.0380777 
0.1875484 0.4433808 0.2199163 -0.2473274 0.9681336 -0.4126376 0.0058334 -0.3980665 -0.2338852 0.7786537 0.4292950 0.6439554 -0.6659533 0.0914136 -0.7168154 -0.1963817 0.2424187 0.0142603 0.6082561 -0.2088699 0.1230052 0.7128984 -0.3373465 0.8696001 -0.2953666 0.6913246 0.1575340 -0.6231779 0.2624846 0.3438501 0.2287054 0.2813186 0.4564411 0.3031706 -0.2298497 0.3978506 -0.0030771 0.6877655 -0.4069881 0.6317134 -0.0781873 0.0303451 0.0329531 -0.4540498 0.5735074 -0.0947739 -0.1584348 -0.2439362 0.6562271 -0.2028684 -0.5377126 0.3364233 0.1474368 -0.1687808 0.3068688 0.9256860 0.2907797 0.1727382 0.6658484 0.0894830 0.5508619 0.0627683 0.4948772 0.3142079 0.0430469 -0.6558243 -0.7110953 0.0611764 0.1568596 0.1961539 0.3645888 0.4269436 -0.4260032 0.5617740 0.5242824 -0.5705770 0.1165093 -0.1984830 0.4494911 -0.4998157 0.0453565 0.4485663 0.2705415 0.4141051 0.3002093 0.4013710 0.2516938 0.2390993 0.1700368 -0.1756282 -0.1508407 -0.2105904 0.2322905 -0.0693405 -0.3012897 -0.4080095 
0.7771863 0.3401219 0.1928513 0.5240164 -0.7567925 0.0206220 0.9247924 -0.0105114 0.4278085 0.5739693 0.3340627 -0.7106079 0.1197641 0.4026116 -0.2122376 0.6782951 0.4256708 0.0289570 0.4098928 0.2648798 0.1576829 0.0429267 1.2231300 0.0526165 0.7193658 0.3967287 -1.1349583 -0.3920889 0.6679710 0.1833019 0.5060182 -0.4405598 0.3083986 -0.0280754 0.2958556 0.2191366 0.3861554 -0.6017611 0.4735365 0.0627309 0.7216981 0.7935969 0.8486276 0.4166773 0.7869226 0.4707330 -0.0352279 0.8899979 -0.4160458 0.4897177 0.0141376 -0.5491995 0.5538437 0.5717845 0.7856337 0.4763345 -0.5673003 0.8223702 -0.5854557 -0.2820473 0.9203623 -0.4518613 0.4590402 0.0806632 1.1088740 0.2980558 -0.0224633 -0.6370158 0.6060211 0.5490665 0.4424656 1.1090954 -0.5831129 0.7418467 0.2845176 0.5059346 -0.6435537 -0.0072952 -0.5274280 0.5110216 -0.0523600 0.6299902 0.0779506 0.5875366 -0.6392494 -0.5780276 -0.2559366 0.1452298 0.2307875 1.0394964 0.2242370 0.3752833 0.6905830 0.1466527 -0.3229751 0.1242571 
-0.3173297 0.2700749 0.6214206 0.4423130 0.0727323 0.4543790 -0.2425797 0.1658496 -0.5172347 0.3031157 -0.1088936 -0.4787142 -0.8660368 0.3341542 0.3302880 -0.1876726 1.4112757 0.8173946 0.0730212 -0.2735327 -0.0022518 0.7159793 0.3644866 0.4248832 0.0789961 -0.0571876 -0.9855083 -0.2389723 0.8134433 -0.4057218 0.6270194 0.3056635 -0.2892153 0.0995565 0.0326004 0.7219851 0.3525736 -0.7090485 0.2313670 0.4747943 0.0355228 0.0089352 0.2585988 0.0796777 0.3810048 0.4143792 0.0099940 0.1400143 -0.4578765 0.6363603 0.5596480 -0.1577729 -0.0707189 0.2995625 0.4470881 0.1912174 -1.0638050 0.8604575 -0.5973850 0.0755726 0.8116217 -0.9514586 0.1117296 0.7653351 0.4070978 -0.4390039 0.2531548 0.5276627 0.1642863 -0.0302904 1.0014343 0.2992005 -0.2850448 1.0781598 -0.1480803 0.8533505 -0.7235187 0.0222908 -0.6589088 -0.0104554 -0.5247450 0.1045883 0.2934412 0.8705431 -0.8610268 -0.4590006 0.6989358 0.0726570 0.3133216 -0.1795986 0.5211435 -0.1333853 0.3497715 0.7553024 -0.8239518 -0.7090698 
0.0222158 -0.6394517 -0.9370639 -0.3834352 -0.0248445 1.3599780 1.0783956 0.6010145 1.3514762 0.1569348 0.5299867 0.8063409 1.3349632 0.3583309 0.5357978 -0.2002860 0.0688326 0.4249923 0.3870882 -0.4577981 0.2361792 -0.8408437 -0.7338825 0.0685224 1.0753244 -0.1598900 -1.0685807 -0.6242364 -0.0347175 0.8567603 -0.5761130 -0.0798405 1.3072472 0.5427469 0.0925341 -1.1516044 0.1108782 1.0773720 1.2383878 -0.9322529 -0.0059772 0.3497107 -0.3716763 1.8941623 0.7844679 0.0771450 1.0693331 -0.2124966 1.1180216 0.1529393 1.7999040 -0.2044165 1.2186393 0.4376918 0.7332835 0.3211357 -0.0162359 -0.4126383 1.5926037 -0.4146572 0.5356322 0.7898442 0.9275965 -0.5116517 -0.0015453 1.7647726 1.5999618 0.6225958 0.3960898 0.5568902 0.7762388 0.8777069 0.4125459 0.7591658 0.6717537 0.7047057 0.1321145 0.6771866 1.9759527 1.0732702 0.2886831 0.4643984 -1.6388873 0.0600738 1.7214782 -0.2008988 0.3675866 0.7662441 0.9211671 0.2607594 0.3803511 0.0810207 -0.0611906 0.4606291 1.3029087 0.1323077 
0.2088813 -0.4724834 0.0712326 0.1026488 1.2897456 -0.2225722 0.5650832 -0.1547724 -0.3336434 0.7473522 0.1124773 0.9994408 -0.3507276 0.4325588 -0.2341653 -0.2455682 -0.0121124 0.5051949 -0.0361625 0.0642754 0.1666675 -0.3683212 -0.3773300 -0.3689474 -0.6386537 -0.6723232 0.2884736 0.6120246 0.2587010 -0.1144560 0.3741360 -0.0778706 -0.1656632 0.1270483 -0.2022610 -0.4707503 0.2032127 0.0985130 -0.6011468 -0.1530789 -0.6556105 1.1101011 0.0919761 0.1085856 0.2479360 0.0829659 0.2050407 -0.1534034 0.1499672 -0.2221912 0.0782150 0.8575290 0.0786910 -0.5000623 0.0956796 -0.3045702 0.2101682 0.1534391 -0.3932928 0.2743538 0.7179254 -0.3407334 0.1860482 -0.1290574 0.6356884 -0.1985349 -0.2687885 -0.0588756 -0.4869358 -1.3069701 -0.2109793 0.2210962 0.0376301 0.4992628 0.5005791 -0.2439984 -0.0867662 0.0648613 0.4046047 -0.8691812 -0.1642180 -0.4002951 0.0197810 0.3753742 -0.4340542 -0.7458444 -0.1729424 -0.1810349 0.1947817 0.0664751 0.3532255 -0.1845276 0.3487225 -0.2310732 0.3677307 -0.7215056 
0.5459022 0.0228308 0.9467541 -0.1946648 0.5514366 -0.2454561 0.5312239 0.3927471 0.8377924 -0.2227807 0.6339337 0.5621296 0.5808850 0.3746562 0.7023803 1.4255294 0.3025515 0.2892750 -0.0431554 0.9956864 0.8646838 -0.6440818 -0.1289453 0.2923549 -0.2665203 0.4159638 -0.7102500 0.2048008 -0.5715693 0.6736948 -0.2484006 0.3152717 0.7194160 0.9218209 0.2405832 0.2558009 0.5462514 0.2974809 -0.8482583 -0.3128981 1.1195843 0.3543169 0.3138991 0.2149721 0.5276603 0.2406168 1.6487992 0.9131222 0.6355495 1.5878397 1.3302495 0.6120618 1.0161071 -0.2863615 0.1092066 -0.2540884 -0.6202191 0.8551845 -0.1054148 0.8078459 0.0982352 -0.3736132 1.2745851 0.2598271 0.1594726 -0.7511759 -0.0485501 0.1748121 -0.2992872 0.1020859 0.8285565 -0.1131589 0.6749582 1.0313567 0.0204532 0.2488693 -0.1450006 1.3992849 0.7999913 0.9617044 -0.2422586 0.0914208 -0.0947389 0.5548809 0.7614413 -0.8824713 0.7877460 -0.1884609 1.2814579 1.3390212 0.4139448 0.4013247 0.4114923 0.2626540 0.4908454 -0.6934696 
0.5680309 0.7319628 -0.0317049 0.7161793 0.2799913 -0.2830105 -0.1166828 -0.7290392 -0.5447111 0.2510313 0.6243764 0.3728782 -0.1626115 -0.2662842 -0.6393544 -0.2724033 0.7582976 0.2613119 0.8486152 0.3127855 0.3135871 0.6686439 -0.3526621 0.4101635 -0.6084183 0.0825340 0.0473853 -0.7251558 0.3321143 -0.3179014 -0.2415862 0.2421124 0.2352757 -0.2244231 -0.0288548 -0.0631166 0.4701251 0.1097258 -0.7587139 0.2652628 0.0475008 0.4258920 0.2593078 0.0100187 0.5567222 -0.3819531 0.5477025 0.1401397 0.4198161 0.6251663 0.0746749 0.6932510 -0.0393383 0.5338212 0.3764025 0.6465530 0.1184669 1.1470337 0.7224633 0.4226392 0.0898952 -0.5950161 0.5929332 0.6132893 -0.1655461 -0.7599534 -0.7226923 0.2190975 0.0847982 -0.4801946 -0.3569955 -0.0830516 -0.0335949 0.1885855 0.0427347 -0.4250343 -0.5836804 0.1446977 -0.3089805 -0.0735027 -0.4871073 0.2277109 0.3774673 0.7540734 0.5251307 0.5741893 -0.2219229 0.2738670 0.2013488 -0.0796780 0.6898655 -0.0608666 0.6885040 0.7273127 0.2909521 -0.3925025 
0.7404979 0.1175748 0.7927715 0.1458701 -0.0315585 0.2790674 0.8879187 1.2218275 0.6625055 0.4253738 1.0677733 0.5158962 0.7233452 1.2114094 0.1494340 -0.3837959 0.0291508 1.2860941 0.3208812 0.7907597 0.6389805 0.7400723 1.0950340 0.8344208 1.1873402 0.4098473 -0.5952044 0.0367865 0.2652921 0.5939658 0.8637758 0.2475270 1.3858017 1.4132327 1.1573914 0.3668713 1.1279913 0.9614198 1.0452641 0.6268692 0.5827743 -0.0221321 0.9982584 0.7151595 1.4895667 1.8114944 -0.8041283 1.3201204 0.7041617 0.7919833 0.1751166 0.8718261 0.1730277 0.5869392 1.1985357 0.7722015 -0.6150019 0.5691117 0.1095246 1.0652431 0.6976960 -0.0095861 0.4334931 1.4108514 0.7738099 0.9858736 0.5230145 0.2042243 0.4668915 1.3789864 1.0392167 0.7522482 0.4458803 1.2513044 0.9901265 0.9147188 0.0980482 0.8424612 0.6708387 0.6642855 0.6155114 0.2626062 0.6148455 0.1305972 0.4586586 0.1079672 0.6931093 1.0411627 0.5871349 0.1255146 0.6447785 0.5565063 0.8315231 0.8129849 1.0193326 0.0866803 
0.9858495 0.8189665 1.0450626 0.9137522 0.2717649 1.0903781 0.6626362 1.2929084 2.0106659 0.7357847 1.4170548 0.3815232 1.3508503 1.4326771 1.8551166 1.2322876 0.6595717 1.1439592 0.4898584 1.5617682 0.5990610 0.3074188 0.9733099 0.2445956 1.1933233 1.2894013 -0.2803796 0.9823106 1.1022862 1.4024556 0.8675312 0.1380261 2.0300394 1.3652097 0.2529277 0.9021080 0.5308737 0.2247297 2.0723609 0.9255698 1.0183555 0.8664143 1.1229963 2.6592689 1.0518170 1.7062733 1.6606889 0.7362298 0.5120195 1.0522892 1.1947090 0.6246767 1.1886969 0.9234266 0.3663265 0.3277652 -0.3167151 0.2533672 0.2897426 0.7929032 0.8778467 1.1919889 1.0857069 0.6517214 0.6927533 1.4085502 1.3229949 0.6607508 0.8714880 1.1389341 1.4665571 1.9669488 1.1349542 0.8166942 0.4876467 1.7630193 0.3745376 0.2637882 1.7980237 1.6342384 1.4320515 0.9052861 0.5439444 0.5772356 1.4902126 0.5058964 0.3498914 0.6601349 1.1837948 1.0764491 1.0817643 0.5587296 0.3583420 0.4525939 0.5766183 0.2651362 
0.1831216 -0.2861030 -0.1264640 -0.2650960 0.0346816 0.2523395 0.0927927 -0.0206642 -0.4988648 0.4066476 0.1035825 -0.9050462 0.4581778 -0.4036741 0.5052401 -0.5476047 0.4754006 0.6507265 0.0466191 0.1103476 -0.4432172 -0.1849631 0.4163678 0.0855767 -0.2208461 -0.3320993 -0.4290291 0.4844970 0.2780978 -0.3028567 0.0119928 -0.1260704 0.6158202 0.5863271 -0.5465023 0.6483126 0.1337162 0.2974687 0.2439290 -0.3778989 0.0025593 0.0775604 0.1304248 0.0258384 1.3024599 0.9587042 -0.7531219 0.4106573 -0.1137816 -0.5833809 0.3748974 -0.4432934 0.1142192 -0.1719164 0.7978276 -0.4708287 -0.7144265 0.7392415 -0.0935254 -0.0108654 0.9503407 -0.6500418 1.3131751 0.6931461 0.3602748 0.6190481 -0.2708284 -0.1464417 0.0015168 0.1616452 0.5269097 1.0991888 -0.0995370 0.1402325 -0.6447955 0.4077778 -0.1284600 0.8844926 0.6700261 0.2096856 -0.0343077 0.2664295 0.3170829 0.7696687 0.5283706 -0.8517009 -0.1045589 0.0177598 1.0123692 -0.1202916 0.9728542 -0.0060111 0.2459945 0.5238254 -0.0301675 -0.0382154 
0.4999747 0.0160949 0.1822226 0.4297739 1.0372593 0.3426645 0.4664798 -0.1191746 -0.7088685 0.3764624 0.6042639 0.4966163 -0.6217930 -0.1494132 -0.1054393 -0.0020418 0.8110030 -0.1975339 0.6705472 0.6427887 0.3490498 0.4464826 -0.0535701 0.5762283 -0.3759905 -0.1604081 0.1437055 -0.7415146 0.0199405 -0.0451237 0.4215505 0.3041566 0.7256471 -0.4360793 0.2701157 -0.3227071 0.5416378 0.5534847 -0.0529121 -0.0540218 -0.3468221 0.8750634 -0.2672158 -0.4187399 0.1422792 -0.3923643 -0.3652282 -0.0752294 -0.1571102 0.5205793 -0.5082410 0.0474294 0.0672269 0.0885286 0.6890036 0.2984583 0.3342088 0.1874708 0.6030891 0.2456722 0.7679249 -0.3190237 0.3490598 0.6330424 0.1478485 -0.0460034 0.0826606 0.0410527 0.4188473 0.1027702 -0.1538033 0.0095724 0.4581832 -0.1183087 0.4603499 -0.5800682 -0.6068087 -0.4426921 -0.2724118 -0.7027943 -0.6285606 0.2144227 0.2612242 0.3367022 -0.3729065 0.7150340 0.1308406 0.2980977 0.1110140 -0.4024113 -0.1194243 0.1198427 -0.2092896 0.3184257 -0.2698861 -0.6840240 
-0.3010409 -0.3963679 -0.3338533 -0.2382254 0.6862154 -0.5441921 -0.0837205 -0.1604586 -0.5579329 -0.2372270 0.6182209 0.5426527 0.6002781 0.8800549 -0.1410179 0.9718847 0.0220932 0.8568141 0.1674421 -0.2104474 -0.1679724 -0.5271966 -1.5509427 -0.2352168 -0.1913655 0.4531914 -0.8813096 -1.3019741 -0.2574610 -0.2044689 -0.2126027 -0.6203929 -0.2449183 0.4763312 0.6894305 0.1739291 -0.8050522 -0.1384929 -0.7144566 -0.1099433 -0.5940543 0.2994452 -1.0289149 0.6462519 0.0208769 -0.2964172 -0.2395319 0.4735193 0.2434692 0.0783395 0.0122189 -0.3923962 -0.4493555 0.5835122 0.5747017 -0.7387134 0.2943077 -0.7147104 0.4555074 -0.7240037 -0.1970666 -1.0303280 0.9482914 0.2293267 -0.3441464 -1.0695308 0.6780354 0.5034162 -0.1095536 -0.5823857 0.3528168 1.0602793 1.1198195 0.6234483 0.5958552 0.7783320 0.3075018 0.5758216 -0.7933612 0.5718030 1.1282141 0.8140765 0.2716640 0.8308428 0.8405318 -0.0325721 -0.4829131 -0.8855997 0.8777191 0.1731560 0.0040037 1.1010782 -0.3811169 -0.6361624 1.4947012 -0.9119280 
1.3833208 1.1525976 0.6605322 -0.1803040 0.3127249 0.6661168 0.4264021 0.8931765 0.5058767 1.6094442 -0.3163932 0.8797448 1.2114391 0.9190041 0.4312707 0.3618571 1.1459987 1.5814139 0.2674469 0.0430979 0.0313618 0.8902731 -0.2805038 0.6015944 0.9537429 1.1676050 0.4070547 0.3211238 1.8621066 0.5472258 0.2006292 1.0813805 0.6151586 0.5041565 -0.6625739 0.7122614 1.2465432 -0.0937076 0.7271788 1.0471966 0.0265000 0.7752646 0.9652283 -0.8107261 1.4239305 0.6214839 -0.0982588 1.6423175 0.2876333 1.3925430 -0.4828390 1.3673647 0.3165761 0.2773137 1.4868456 1.0470614 -0.6635914 0.0940951 -0.6509923 0.1910135 1.5073526 0.1863438 -0.0795229 1.3978663 1.4175731 0.8813326 1.0681568 0.9317800 0.3376073 0.1044071 2.0451660 0.2076134 -0.5512348 1.5375826 -0.0688408 0.1098687 -0.6673439 0.6470817 -0.1770151 0.7930690 0.9805671 1.6705284 0.3480888 0.9572065 1.3529689 -1.2417251 0.6283972 -0.2785374 0.9700566 0.5450668 0.5527093 0.5772956 1.5594922 1.0310543 0.8153457 0.5019017 
1.0648009 0.4499828 0.6533450 -0.1841507 0.1516136 1.0002094 1.1388690 1.4235037 2.4021862 1.3077640 0.8669786 0.5924061 0.8632602 0.6145091 1.6156236 1.1263902 0.1062406 1.1326768 0.4960841 1.4329080 0.6704468 0.3647301 0.7438109 0.7786390 0.8253905 0.8301034 -0.6309495 0.8494275 1.0248364 1.9501319 1.1984924 0.8447432 0.8895909 2.4676119 3.1357518 0.8618280 0.7615966 0.7729698 1.2940898 0.3190365 1.2113898 0.6408520 1.7069617 1.1205557 0.9464292 0.1681394 1.2026194 0.6789158 1.0501613 1.0746971 1.4864222 1.2145651 1.0002533 0.6241634 1.2150157 0.5720019 -0.9072855 0.3903953 1.3386587 0.3365575 0.2145574 0.6306988 0.5388152 1.5772160 0.4130803 2.3549356 0.9891908 0.4199292 0.5213164 1.3250748 1.3924687 0.7888142 0.9710560 0.5844789 1.0929226 1.0809466 0.0573602 0.9593964 1.6865711 1.9343073 0.6505595 0.4718680 -0.3223086 0.6639997 1.1346802 -0.4454313 0.5953449 1.0159749 0.5872130 0.7684303 1.0279362 2.4774315 0.7986630 1.0180104 0.8915671 1.0937847 
0.5461491 0.5827840 0.2543032 0.5812670 -0.3020885 0.0214615 0.1848113 -0.2110194 -1.0723691 0.3299827 -0.4604138 -0.2952154 0.4232204 0.3573669 0.0943679 -0.1871941 0.8109625 -0.2554886 0.8511358 0.7060984 0.2555693 -0.0420807 -0.3081636 0.2394109 -0.3220951 0.1685137 0.4312461 -0.6734097 0.4485729 -0.1435710 -0.1134694 0.4396761 0.6656893 -0.4793425 -0.3060286 0.2714270 -0.2033055 0.2439302 -0.6742997 0.6331958 0.3982176 0.2689438 0.4363695 0.1291166 -0.1670853 -0.4260211 0.0544013 0.2306202 -0.0778588 0.3541619 -0.2400320 0.1219949 -0.2918903 0.6865455 0.7361241 0.2621917 -0.1889022 0.3125112 0.0706469 0.0466006 0.0108339 0.0224685 -0.0401733 -0.0028458 0.2075730 -0.4140566 -0.4029189 0.9683301 0.3929088 -0.1222485 -0.0537637 -0.0947428 0.1240940 0.2176086 0.0640802 0.1588271 -0.2917826 0.0531474 0.1152463 0.1467889 -0.1218976 -0.4274708 -0.1607215 0.7135971 0.5099233 -0.5617304 0.0355611 -0.2788495 -0.1316997 -0.0641747 -0.0832304 -0.6902225 0.5097885 0.3896516 0.9247155 -0.6479502 
0.7609814 1.0700796 0.8768339 -0.3343684 0.5042244 1.6412724 0.3798833 0.7630767 1.4155314 0.8271902 1.4616214 0.9792283 1.0783698 0.8787969 1.1371460 -1.8836350 0.0404427 0.6261648 0.5518706 0.5636070 0.5356892 0.8723245 1.1692462 0.6901354 1.1101013 0.3260635 -1.0657902 0.0346596 1.0209295 1.2606077 0.5097303 0.4495828 1.6599865 0.5639933 0.7254163 1.0735433 1.0561430 0.3364792 2.0276582 0.9209587 -1.3969249 0.7390605 0.8736898 1.0412449 1.3752568 1.7438579 -0.0181443 0.5224770 0.2006159 1.2005966 0.7306378 0.9441627 1.0936571 0.9238056 1.0753796 0.0848090 -0.4147046 0.6000269 -0.1503445 1.0389040 1.0661764 0.4299283 1.1217363 1.4112724 0.2505237 1.0933372 1.7754524 0.9242375 0.5526041 1.4309598 0.8590514 1.8269693 0.8699665 0.6719825 0.5594564 2.0221059 0.9852132 1.0729968 0.6740817 0.4481365 0.1700923 1.0158055 1.4914351 0.8386876 0.5204241 -0.7938051 0.5912960 0.4570885 0.3544547 0.8613161 1.0558435 0.6042560 1.0842488 0.8750738 1.0534062 1.1568598 
0.5606426 0.6848467 0.8347805 0.3214663 0.3230853 -0.4672778 0.5921245 -0.5976437 -0.1385128 0.4974546 0.1041622 0.7448000 -0.3833824 0.2381181 -0.2993804 0.0254020 0.1626444 0.3059806 0.0650680 -0.1109493 0.1763454 0.1840217 -0.5771222 0.4197898 0.5019582 0.4464013 0.9929614 0.2474490 0.3465750 -0.4104624 -0.2618799 0.6080882 0.2545631 -0.5353254 -0.3290227 -0.3614478 0.1084912 -0.1866502 0.0940951 0.9140462 -0.3689988 0.8550385 0.7691789 -0.3880992 0.1369994 -0.0455624 -0.3213731 0.3559546 0.0448421 0.0109203 -0.6427636 0.5222524 -0.7197043 0.0251757 0.3047627 0.5434091 0.6386417 0.2984433 -0.1307176 0.1320214 0.2019319 -0.4424800 0.6854043 -0.3417583 0.6715119 -0.9100740 -0.4238821 0.6294910 0.6544727 -0.3309853 -0.2303964 0.4451326 0.3619939 -0.0135691 -0.0020055 0.0086338 -0.6209673 -0.2762746 -0.0161006 -0.6883716 -0.4170606 -0.2344788 -0.3660855 0.0645469 0.1017174 0.8550710 0.2444305 0.5005904 -0.0343151 0.3593612 0.5229598 -0.0757489 -0.1432672 0.2573855 0.2420924 0.1310071 
0.3449986 0.3167935 0.1221272 -0.0713803 -0.2218782 -0.1713015 0.6160537 0.3033183 -0.5197209 0.4288633 -0.5621621 0.1430298 0.8211201 0.7016661 -0.3410965 -0.1107634 -0.1346348 0.4766108 0.6392984 0.4050137 0.4645285 0.2404984 -0.5663816 -0.0667317 0.2837196 0.7178001 -0.2503550 -1.0513113 0.2124538 -1.0021824 -0.1207639 -0.4729494 -0.3495889 0.0762566 0.0576936 0.1781149 -0.8487490 0.0136071 -0.0702619 0.1004042 -0.1540157 0.7008434 -0.3996100 -0.1895925 0.1229834 0.1133039 0.5406652 0.3517582 -0.0813415 0.3529128 -0.5185134 -0.1167420 -0.4313175 0.4802354 0.4991495 0.2332372 0.1439044 -0.0800931 -0.4046551 -0.1781080 -0.0308176 -0.4772672 0.2865130 0.2508881 0.1259864 -0.0474768 -0.1276553 -0.4849258 0.8515455 -0.1872900 -0.1589479 0.4689412 0.0830218 0.4841235 -0.0624330 -0.0696389 -0.2450558 0.3805523 -0.5637918 -0.1388071 -0.3360095 -0.4596143 0.4057419 0.1065950 -1.0805177 -0.3186781 0.7549441 -0.4447976 -0.4381532 0.1438395 0.7670515 -0.6302789 -0.1354538 -0.5597675 0.7238669 0.1579687 
0.6496639 0.2552008 -0.3116193 0.3793619 1.1218084 0.1536428 0.4194163 -0.5608494 -0.1012492 -0.4336259 0.4114550 0.7109319 -0.0866321 0.5910069 -0.2685594 -0.3785182 0.1343550 0.2115378 0.1959658 0.1444008 -0.1028447 -0.2927332 -0.3890162 0.4402411 -0.2186223 -0.0391326 -0.0416229 0.3657445 0.1887043 0.4393497 -0.1315787 0.3293971 -0.1443917 0.1466571 -0.3976587 0.1017718 0.1434082 -0.2127115 -0.3577615 0.3070394 -0.4642780 0.5195503 0.0343498 -0.4968611 -0.1146240 0.3704202 -0.0826268 -0.2976680 -0.2483222 -0.0829089 -0.1556798 -0.5992151 0.1548914 -1.3277111 0.4877085 0.5579799 -0.2178001 0.3161881 -0.1548785 0.3590501 -0.1493047 -0.6834196 -0.2938736 0.4058836 0.4514432 -0.1105806 -0.7031376 0.1699742 0.0886061 0.3114287 0.1113057 -0.2321819 0.1908155 -0.1966155 -0.2063527 0.2463805 -0.4605631 -0.2194492 0.6657151 0.0036945 -0.0780990 -0.1274012 0.3409483 0.2350232 -0.4423951 0.7238374 -0.0722906 0.2358342 0.3510116 0.1262303 -0.1477713 -0.7369432 0.2500166 0.8338532 0.3480952 -0.0440132 
0.1189205 -0.0341129 0.4276685 0.0010419 -0.3010253 -0.4000207 0.5843997 -0.6548252 -0.3285883 -0.1009692 -0.1968373 0.3522002 0.0462769 0.3376684 -0.4209687 -0.1199633 0.7476063 -0.0184208 0.1332742 0.6046204 0.6046118 0.5474723 -0.4693217 -0.0870377 -0.4348038 0.1081983 0.2637697 0.3523077 0.7297705 0.0466352 0.6565125 0.0555249 0.1135374 -0.6273568 0.0134881 -0.2781806 0.3273487 0.7075941 -0.0693313 0.0694264 -0.5965185 0.2065448 -0.3522080 -0.8558343 -0.3377143 -0.2252711 -0.2206010 -0.2904460 0.5066879 0.5246078 -0.6369561 0.4928306 0.1510098 0.5905068 0.1047878 0.5540552 0.3238440 0.8428574 -0.2057765 0.8272213 0.8607622 -0.1136626 0.1712590 0.4519074 0.6801218 -0.5428447 -0.0337369 0.3188583 0.2551268 -0.2663549 0.1661833 -0.4105111 0.2891195 0.3933342 0.4400856 0.0338695 -0.4246534 0.4814694 0.3344493 -0.1371557 -0.0735510 -0.2283981 0.1058966 0.7772979 -0.0796215 0.0804889 0.2642675 0.1720111 0.1936887 -0.3895020 -0.0554270 -0.6976658 0.3104407 -0.0388240 -0.0293455 -0.1214973 
0.1481573 -0.0481958 0.1408011 -0.0500134 -0.0398576 0.3356160 0.0422725 0.1140041 -0.4113845 -0.0316006 0.4064971 0.3340805 -0.0601304 0.2525135 -0.0355152 0.0304944 0.7963045 0.3532948 0.7359530 0.2256660 0.2667718 -0.1335936 0.1417323 0.5240112 -0.6325467 0.4109671 0.2211699 -0.7264387 0.7076751 0.4246478 0.4661380 0.3616995 -0.0418327 -0.1116065 0.1526388 0.3115453 -0.0126869 0.2545142 -0.5199066 0.0747055 -0.1153146 1.0443320 0.0829732 -0.4385198 0.4054725 0.2721806 -0.2339070 0.2191521 0.6590155 0.6047494 -0.6919501 -0.1127893 -0.1637560 0.2243059 0.3771044 0.5470472 0.3609661 0.8490401 0.7541367 0.6287057 0.3260169 0.1532495 0.3023360 0.0036821 0.1768106 -0.5259680 -0.4829064 0.0385777 0.4959242 -0.1770761 0.4343494 -0.0934886 -0.0690924 -0.2579919 0.7437143 0.1544818 -0.5915093 0.4315411 -0.1368416 -0.0158227 -0.1924549 -0.4509842 0.0608987 0.0575197 -0.3400075 -0.1084677 0.4770425 0.0378976 -0.0597675 -0.4893280 0.3086588 -0.2983617 0.5528797 0.2588230 0.2278402 -0.4446157 
0.8327874 1.0924810 1.3105284 0.9738121 0.3349382 0.5060315 1.1606053 -1.4989917 0.4650452 0.0783052 0.5616056 0.7856799 1.4654104 1.3089216 2.1860955 0.0816477 0.9196453 0.8032552 0.3236656 1.4044054 0.4679972 0.2540149 -0.2250463 1.3307940 1.8561816 1.2509556 -0.3238229 0.9419407 0.8302723 1.8102519 0.5989000 0.4106773 1.1558349 0.5979062 -0.1499064 0.7896751 0.9805114 0.9325781 0.9946903 0.8481301 0.1886570 0.5980351 0.8715830 1.4381233 0.6474631 -0.1012783 0.3956300 0.4364545 1.1701298 0.6125160 -0.4265694 0.4097218 1.0202617 1.0502582 0.9790291 0.7709553 -0.4154431 -0.0533354 0.9652998 -0.3234179 0.1131360 -1.1875056 0.7607003 -0.7219267 0.9594475 1.0896179 1.0177960 0.1108288 0.3914824 1.3142534 1.2247480 0.7770009 0.7339982 0.7667427 0.6593239 1.1230630 0.1524680 -0.3975523 1.2078655 1.9673404 1.5092803 1.6555590 1.7098283 0.3261717 1.2944505 0.0988562 -0.4743138 0.6731243 0.6177241 -0.0772224 0.5957745 1.2056473 0.5199145 0.4312529 1.1161339 0.6533639 
-0.0282366 0.6817127 0.3313585 -0.1365464 1.5878088 -0.4832303 -0.1773697 -0.3214645 -0.4018898 0.3649903 0.1618334 1.0337325 -0.1216863 -0.3379370 0.2057590 -0.0403407 0.0655396 -0.0290613 0.0577110 0.3270302 0.5308578 1.0201056 -0.0658400 0.2389945 -0.4617279 0.3100075 -0.0808264 -0.8534616 0.1785221 -0.4384859 0.3754480 0.4302003 0.1211499 0.2690814 -0.1845297 0.6297847 0.0794022 -0.1124279 -0.1482216 0.6302738 -0.8618399 0.4293073 0.1711714 -0.7184582 0.0257983 -0.2616756 -0.1505610 0.3276013 0.3764702 -0.2356651 -0.5171706 -0.1277155 0.0610654 -0.5236406 -0.1979657 0.4674375 0.3471032 0.5222453 0.4485772 0.1617124 0.0580388 -0.1208337 0.0545465 -0.2772997 0.3192173 -0.1345681 -0.6358061 -0.1359184 0.0609578 0.0379333 0.1511339 0.0823286 -0.2711545 -0.3983332 0.0776374 -0.6549912 0.0444746 -0.3762217 -0.2031259 0.0705752 0.0099367 0.1973318 -0.4528257 -0.0536978 -0.3103866 -0.0983096 -0.0048433 -0.0507148 -0.3920261 -0.5073950 0.5231954 -0.7414904 0.6718866 0.2264586 0.1686954 0.2292085 
0.8456988 0.4761002 0.3025810 -0.4002713 0.0582269 0.9496713 0.8846396 0.6481868 0.3474991 0.3551676 0.8013101 0.3789292 0.9332222 0.6916549 0.0068373 1.0711361 0.6434579 1.5426046 0.2284923 0.4593751 1.3492397 0.9441561 0.7845639 0.2843172 1.1676166 1.2679303 -0.8698062 0.9559141 0.5818127 0.2592477 0.4496267 0.7836469 1.5293775 1.9359679 -0.2130270 0.9569925 0.9283345 0.4362045 1.0717966 0.6203405 0.6565921 0.3027069 1.1229600 0.2214183 1.0981920 1.5568060 1.2641068 0.8753487 0.5825477 0.3016519 -0.1941115 1.3456580 0.8337859 1.0881812 1.1501334 1.0534954 -0.5635594 0.1132262 -0.4764396 0.9307287 0.2062259 0.3417312 1.3221320 0.8988887 1.1071582 0.6286158 0.9625855 0.1176737 0.9596698 0.1686795 0.7252252 1.0345204 0.2974281 0.4760939 0.8542433 0.8482132 -0.4484083 1.1170954 0.2582970 1.1887291 0.2872822 0.9071871 0.8317600 0.6978447 0.6633942 -0.0976975 0.8805681 1.4268780 1.0324423 0.4376419 0.8814786 0.2673606 0.7709173 0.7369280 1.0147645 0.7826846 
-0.1658720 -0.6553413 -0.5552171 0.2257399 -0.1835581 0.1055385 0.7663338 -0.0201679 1.1249521 0.4414172 0.5913274 -0.5082696 0.0650537 0.5031368 0.1484090 -0.6158634 0.5409233 0.2034734 0.5650723 0.0132444 0.9470665 0.6653878 0.0318429 0.1943759 0.4098871 -0.0387480 -0.8066774 0.4548799 0.0821383 0.2804626 1.3316534 0.6922051 0.8793968 0.6016110 0.4496454 0.0935447 0.2188961 0.0347979 0.7283154 0.2487628 -1.7041411 0.4905887 -1.2307807 0.0533138 0.3357399 0.5086848 -0.8801289 -0.1846551 -0.2770096 0.6340066 -0.8943796 0.1471996 0.3399514 0.1657398 0.7695372 0.3995692 -0.7226057 0.0895021 0.4298527 0.0334024 0.4847686 0.0928556 0.8012611 0.0281283 0.2471071 -0.1299823 -0.2216509 0.2440222 0.5010017 -0.2595157 -0.4249770 0.6980950 0.0608029 -0.0485812 0.1232818 -0.2821539 -0.3770243 1.2224032 0.7256669 0.4473384 -0.4018619 0.2112871 0.1298127 0.9179948 -0.4423338 -0.8713031 -0.9754307 -0.8126956 0.6421402 -0.6300973 0.4840616 0.5183835 0.0983413 0.0893140 0.6762253 -1.0076262 
-0.0066453 0.7540610 -0.5827136 0.1286805 0.5996366 0.0107185 -0.0703320 -0.5219157 -0.4570093 0.6204178 -0.0299304 0.6087939 -0.1841312 -0.2335669 0.1599123 0.0703208 -0.1377608 0.4221802 0.3185617 0.0275015 0.1231938 1.1036855 0.0703038 0.2894101 0.2697285 -0.2644399 0.4282845 -0.4808632 -0.1128559 0.3246775 0.1222640 0.4450820 0.6911744 -0.1205375 -0.3650908 -0.1703141 0.1136764 0.4882016 -0.2832049 0.0144122 -0.1199644 0.1366922 0.5334957 -0.0118269 -0.1506973 0.1034421 0.0854997 0.3250825 0.4338040 -0.0042870 -0.2789474 -0.2160494 0.0517186 -0.2900631 0.1203318 0.5442977 -0.0078938 0.5295493 0.2746597 0.8513555 -0.3563602 -0.3403740 0.1957348 0.6077966 -0.0747292 -0.9614512 0.1668749 -0.1671742 0.9357913 -0.7070892 -0.4649085 0.4429622 -0.3457607 -0.1152934 -0.0197898 -0.0571613 -0.6819768 0.4676110 0.3932694 -0.7835356 -0.3723800 0.5901530 -0.3415330 0.5222251 -0.1431096 -0.2925507 0.3640626 0.4419412 -0.1327522 0.2789450 0.5272077 -0.5433447 0.5185343 0.5579745 0.3650117 -0.2994518 
0.6581455 0.0206416 0.5558886 0.0415942 0.0616450 0.5897141 0.8216998 0.0189653 0.8280510 0.9251355 0.3675745 0.8756789 0.5824395 0.3089409 0.6940314 -0.1004692 0.1921196 0.9894393 0.4153097 0.6160951 1.1648746 0.9342730 0.2874167 0.0876425 -0.2507521 1.0462462 -1.5212610 0.5882697 0.9435420 0.6571079 0.3638858 0.2554202 -0.0516713 0.7343444 0.1813356 -0.5336852 0.7230913 1.0760400 0.1617237 0.4971020 0.2665980 0.1029937 -0.8438711 0.2182708 1.3126997 0.7262932 0.3201646 0.7297992 0.5490249 0.8490791 -0.2467539 0.8495800 0.2463252 0.8293459 0.9733090 0.2554295 -0.5843798 0.2769580 0.4363043 0.7300766 0.5879515 -0.3421003 1.0762485 0.7106181 0.3391064 0.5176384 0.4025373 0.1503872 0.2321917 0.3218220 0.4837058 0.8990044 0.1886667 1.2464752 1.1840763 0.6293426 0.2176151 0.4637097 0.0262453 0.0685861 0.3750170 1.2033024 -0.2482996 0.4427100 1.1932237 0.4822898 0.9913657 0.6139771 0.7260412 0.4424206 1.3738541 0.6557584 1.1438733 0.4594818 0.9458579 -0.7232099 
0.4586306 0.0324098 1.3547128 -0.1676695 0.6653577 0.3943578 1.2492000 -0.2390237 0.5365952 1.1390593 -0.1416792 0.2007387 0.5413850 1.2371052 0.8448409 -1.1203244 0.2720474 0.1703909 0.1837875 0.9529586 0.4860913 0.4019235 0.8584505 0.4234581 0.7118895 0.3990936 -0.3379129 0.8594940 0.7207727 0.1203874 1.3655249 0.2363856 1.4691770 1.1059286 0.5009006 1.1906521 0.1936261 1.1412689 1.2074578 0.2830962 -1.6054487 0.1735391 0.4096276 0.5437079 0.4313532 0.0460695 -0.1865167 0.5746592 0.7588010 0.7332613 -0.9599040 0.4536160 0.5303368 -0.0714065 0.8868876 0.2999706 -1.0226056 0.1460336 0.0892011 0.1548306 0.9090027 1.1675844 0.7550842 1.6832488 0.4137823 0.9677529 0.5740284 -0.1040262 -0.2629188 0.5439154 0.4862330 1.2462305 0.2056584 0.3321671 0.5851469 0.1710064 0.5417735 0.7442100 0.4519425 0.6079081 0.2822055 0.8904460 1.4584201 0.9300980 0.6544574 -0.8646888 -0.8010917 0.3703933 1.0200352 -0.4728258 0.5519684 0.4327378 0.3875402 0.2130920 0.6881546 0.1299491 
0.4857272 -0.0009926 -0.2275361 0.1172971 -0.1478646 1.7331066 0.5087115 0.9387380 1.4675473 1.0698712 1.6902636 0.0632069 0.9257328 0.2758158 1.6876125 1.0815039 0.7091609 1.0306898 0.5894378 0.6705108 0.6700587 0.1434544 0.0381569 0.5639152 1.0250079 0.0936995 0.0310979 0.6030654 0.6874849 1.5159700 1.0107920 0.5665366 1.8382314 1.2910269 -0.1865894 -0.4196719 0.2867422 0.2696980 1.1656555 0.7938466 1.1330139 0.4544991 -0.7231225 2.7089516 0.0111945 2.6786764 0.3776057 0.9377283 1.2116216 1.3174279 2.4392401 0.8072502 1.7629943 0.8325314 0.9134754 0.3991479 -0.0217388 0.2148968 1.4211650 0.3606178 1.0938513 0.5895193 0.5402141 0.8218899 0.5460302 0.8204355 1.9069429 0.4941455 0.5422506 1.4408274 1.2046747 2.3664546 1.6298658 1.0261501 1.1702293 1.3853495 0.8165604 0.5341580 1.8694298 0.9630038 0.9781447 1.1969902 -1.2569843 0.0554855 2.1961750 0.7856215 0.5459992 1.2342630 0.8977573 0.9997640 0.9005367 0.0414549 0.7822394 0.7924764 0.6121252 0.5158367 
0.0533973 -0.0670211 -0.1595114 0.5883755 1.2628202 0.4818289 0.1337365 0.0367013 -0.1251327 0.4586182 0.5049487 0.8048133 -0.3987332 -0.3969793 -0.3988737 0.0776412 0.2456378 -0.0016356 0.3288922 0.4168412 0.5804106 0.1728086 -0.4110698 0.7471033 -0.3225994 0.1001894 0.6067003 0.1944970 0.6376656 0.0701714 -0.1008043 0.4077975 -0.1299645 -0.5817510 -0.4902529 0.1887526 0.1130515 0.0623502 -0.0755263 0.3725042 -0.4175555 0.2750085 0.1631895 -0.4168172 -0.3200135 -0.4061232 -0.1590451 0.3584081 0.1000096 -0.0624157 -0.6536365 0.4651358 -0.2950128 0.5447025 -0.1031654 0.3276198 1.0730692 0.5488119 0.5071605 0.7539885 0.5466352 -0.6620555 0.4401576 -0.0734175 0.0647771 -0.2232857 0.2651366 0.3389135 0.2161306 -0.2125301 -0.0471106 -0.0029707 -0.4021964 0.2371404 -0.0245587 0.1143194 -0.1110822 0.3977572 0.2351339 -0.8785467 -0.5029464 -0.4660274 0.4204437 -0.0241791 -0.3791017 0.7672006 0.4756692 -0.3228530 0.3450910 -0.5097144 -0.0127927 -0.1875684 0.5688104 0.6832134 0.4583465 -0.2922811 
0.5430363 0.7609156 0.7657795 0.1365370 0.5284037 -0.0894470 -0.2896468 -0.5464564 -0.8678782 -0.0114584 -0.2754911 0.7468071 -0.2726308 -0.4342689 -0.1027518 0.2403687 0.5789000 0.1945984 0.3902344 0.4394716 -0.0445475 0.8530167 0.2850486 0.2902718 -0.5901034 0.5288106 0.8180487 -0.3920047 0.0017514 0.2248718 0.1547577 -0.0221778 -0.2021949 -0.0764985 -0.3444152 -0.1147539 0.4853773 0.5726808 -0.1558206 0.5856760 0.1073509 0.7049533 -0.3451066 -0.5028483 0.4268965 -0.2743543 -0.2219133 0.4408691 -0.2391960 0.4928685 -0.2250107 -0.0500227 0.1730184 0.4468602 0.6699295 0.6462636 0.7158014 0.3694851 -0.0573251 0.7019544 0.5052216 -0.2983435 0.1450436 0.0198515 0.3649572 -0.3716742 -0.7467246 0.6970177 -0.0335718 -0.6685539 0.0815249 0.0798063 -0.1986012 0.0637037 -0.0271527 -0.1548233 -0.5128456 0.0396224 0.1845306 -0.7188297 -0.5108201 0.3831353 -0.2241378 0.8074808 0.4664456 0.4942518 0.0816142 0.2669651 -0.4074039 -0.4241710 0.1688230 -0.2909177 -0.1863702 0.7327755 0.1712589 0.0705975 
0.4944387 0.1927790 0.2370245 0.8418248 -0.4083583 0.2727482 0.3641654 -0.0862830 -0.4701048 -0.3012011 -0.7617780 0.8169371 -0.1260449 -0.2290241 -0.1563100 0.4100436 0.8628657 0.2764490 0.3605459 0.8486659 -0.0435322 -0.3325577 0.0129933 0.8882969 -0.2327685 -0.6706555 0.1473953 -0.0643075 -0.1571950 0.4941778 -0.0229210 1.1235754 0.4802091 0.4940551 -0.3903073 -0.3614074 0.4382213 0.2971828 -0.0377141 0.2458384 0.2667546 1.3337458 0.5264987 0.0459096 0.1074991 -0.3791148 0.2315307 0.1450270 -1.4241839 0.3769592 0.1499339 0.7592163 -0.7551398 1.6912825 -0.1423816 0.2445424 -0.3026270 0.8776458 -0.5151322 -0.2619409 0.2429436 -0.4204277 0.6243064 0.1213107 0.5798686 -0.5024085 -0.0943755 0.7856629 0.9129002 -0.2877072 -0.0832144 0.3528734 0.2491928 0.5172703 0.3085770 0.0950822 -0.2655338 0.3968282 0.0026577 0.1873337 0.2102805 0.0093444 -0.3972095 0.2293600 0.1639272 -0.3836516 0.4929732 0.2891045 -0.2878321 -0.3519949 0.7205976 -0.2225836 0.6767238 0.0719277 1.0914486 -0.4287536 
0.3997674 0.7862631 0.4625921 -0.0112667 0.0059792 1.7728567 0.0508966 0.3671084 1.1237445 0.8876611 0.4690629 0.0813737 -0.2333773 0.3828500 1.0748752 -0.0058482 0.6880149 1.4467397 0.3153059 -0.1606025 1.1138084 0.5749724 0.9384051 0.2942279 0.5871505 0.5325493 -0.4683389 1.0125874 1.0585512 0.3864746 0.0030170 0.9865588 1.0851419 1.1246165 0.7727053 1.4438806 0.2273086 0.4663349 0.8193620 0.4943614 0.8603650 0.1025970 1.0984989 0.5709670 1.8671183 1.3795761 -0.4242073 1.1674448 0.6164597 0.9803029 0.3678023 1.0512945 0.0774456 0.6348585 1.1438160 0.9769149 -0.5574630 0.2259310 0.1292444 -0.2201639 0.7695976 1.0606977 1.1521309 1.1306461 0.9315573 1.4239703 0.0764909 0.5121340 0.4463715 0.7946065 1.3172320 1.3134842 0.8385133 1.0051850 0.5270663 1.1102582 0.5681368 0.2614889 0.3342759 0.3261045 -0.0930035 0.6167134 1.3096128 0.4233615 0.7863660 -0.7463569 0.5366901 0.5034505 0.4760477 0.9535254 0.4485736 1.3714475 0.5476280 0.8099943 0.6183481 0.2992137 
0.2143910 -0.6008531 -0.1659586 0.0976913 0.4700811 0.7797446 1.3215290 1.2175702 -0.1223845 0.8271799 1.5749340 0.8603548 0.9220325 0.4080544 1.6676908 1.8089375 0.9951139 1.4412631 0.9975439 1.8429506 0.9681729 0.0235106 -1.7246366 0.7657474 0.8261841 1.0466217 -0.9177060 -1.5027072 -0.0531176 2.2454084 -0.5192089 0.8615719 1.6899893 1.7171447 1.5699995 -1.3223606 0.2595320 1.1967454 1.5725501 0.3492746 0.8837727 0.7321933 -1.1006550 0.2889784 0.9882024 -0.7847714 2.2996255 0.7498406 0.9695184 0.1787553 2.0476760 0.3148994 1.3286451 0.6036578 0.8820694 0.6465282 -0.6346631 0.4043576 1.7099676 0.2276965 0.7559218 1.2658924 0.4154037 1.4736945 0.4867189 2.8863207 0.8163168 0.2488570 0.5403201 -0.1115949 1.5205266 1.8150257 0.9614983 0.8351055 -0.2160682 1.8609222 0.3967059 0.8582961 0.3968342 1.5012026 1.2784273 0.6857976 -1.2317814 0.5495361 0.7663312 -1.6899426 0.7256265 0.9223018 1.4938158 2.0345869 0.5946989 2.2582790 0.1667096 1.2570140 1.2985102 1.3827678 
-0.2539966 -1.3216931 -0.9490562 -0.6331585 -0.2731715 -0.8615760 -0.4928276 -0.7713362 -0.6326113 0.1093623 0.1294094 -0.4964485 -0.9708075 -1.6226918 -0.7636670 -0.3283936 0.5869255 0.4226038 -1.8420255 -1.2392281 -1.5840892 -1.9242063 0.4187637 -0.6794624 -1.2980881 -0.1854626 0.1223535 -1.7430250 0.2613287 -0.9285452 -0.0362742 -0.2055413 -1.0615540 0.2995869 0.3326824 0.2621736 -0.7840970 -0.7092332 0.0520402 -1.1061402 0.0214281 0.3775270 0.2004056 -0.7018582 0.1279557 0.2506874 -0.2832665 0.7493119 0.6254158 0.4348376 -0.2797798 -0.4141397 -1.1690351 -0.6955671 0.7698980 -1.1109947 -1.0831274 -0.0761389 0.2687920 0.1652539 0.1661257 -0.9076985 0.6638349 -0.0757641 0.4129149 -0.8584855 -0.3908773 -1.1780113 -1.6863727 0.2826176 0.2408998 0.2591964 -0.2875762 0.3747732 0.2876232 -0.2935052 -0.2918187 0.2394240 -1.4085627 0.0345038 -0.3520903 0.3187331 -0.0953809 0.9873878 -0.9821578 -0.6547811 0.0507212 -0.5858649 0.4154472 0.4556427 0.5275545 -0.7103199 0.7463401 -0.2510214 -0.0521757 -1.5070387 
0.6110797 0.9664545 0.9791692 0.0356793 -0.1964806 0.8174359 0.5159192 1.4092977 1.7937449 1.2589179 0.0890036 0.4863675 0.4392149 0.3647582 0.2752380 0.8252195 0.0126403 0.9491521 0.3573956 0.6779857 0.5320033 0.5442596 0.0463760 0.5250797 0.8804946 0.3616026 -1.0178285 -0.0333466 0.1842759 0.7571432 0.7773195 -0.0252287 1.7939118 0.7975927 0.8802497 0.7973068 1.1091658 1.2304334 0.6469523 0.1156043 0.2709269 0.6675251 1.4939914 0.4457907 1.8109141 0.3166013 0.7361057 0.9469736 0.2458292 0.6450370 0.4327413 0.0612559 0.3187150 0.3569528 0.9827198 0.6888926 -0.7651281 0.3029597 1.1143373 0.4270528 0.4056660 0.8744853 0.3126403 0.7871236 0.5430528 1.0387175 0.7077666 0.4774532 0.5645285 0.8277172 0.7357272 0.8330701 0.5615524 1.0438657 0.5193817 0.6733886 0.8314574 0.6586189 0.5053397 0.7077054 0.5802854 0.5115165 1.2621975 0.8686264 0.7885708 -0.0566889 1.6187374 0.2161645 0.3633217 0.8342263 0.7198685 0.3916343 0.5134571 0.2674801 0.7017939 0.5587066 
0.4201687 0.6259199 0.3264936 0.6542040 0.9286257 0.2182113 0.3116594 -0.2041819 -0.8026281 -0.1480288 0.7091030 0.2282502 -0.3030577 0.2163292 0.0197068 -0.1426380 0.5625814 -0.3188755 0.6438952 0.4999374 -0.1695208 0.5292573 0.2671206 0.3786210 0.1211028 0.6637688 -0.2453344 -0.3131275 0.5242588 0.4373432 0.0888072 0.2740346 0.1157348 -0.3708612 -0.6239047 0.3436035 -0.3276759 0.5274388 -0.2592174 0.6451305 0.1184294 0.4836025 -0.3538298 -0.2647130 0.1874483 -0.3155143 -0.0551601 0.1187768 0.5044790 0.3654538 -0.3153211 0.6064498 -0.4414573 0.3367157 0.4725663 0.6261315 0.6171585 0.9007737 0.5087191 -0.1471135 0.8281380 0.1672257 0.3300468 0.5160878 0.2620182 -0.3938534 -0.5634753 0.6044859 0.5344835 -0.5178244 -0.3303223 0.4166588 -0.1947044 0.4997217 0.2355811 -0.3816979 -0.2418269 0.2312787 0.4633097 -0.6831709 0.0784922 -0.2322329 -0.3624191 0.4017982 -0.2336201 0.0809185 -0.2033371 -0.2474829 -0.3177100 -0.3077123 0.2819246 -0.5220013 0.7049229 0.3842236 0.1293265 -0.3173933 
-0.6975605 0.3540839 0.3002884 -0.5772924 -0.3895319 0.7364740 0.0606368 0.3409374 0.3085176 0.1619131 0.3597055 -0.2530583 -0.0760534 -0.0384271 1.0501193 0.0650567 -0.2886562 -0.6125293 -0.1597190 -0.3803812 -0.1466692 0.0225202 0.4796720 0.3603354 -0.0072331 0.3715384 -0.2408285 -0.2391444 0.1251130 0.2110491 -0.0572372 0.5754489 0.3395953 -0.1834879 0.0253917 0.3121490 0.2406160 0.8007232 0.5475717 -0.3100054 1.2223755 0.3006695 0.1626622 -0.3511214 0.6818155 0.9654823 0.7793449 -0.3439657 -0.6946030 0.5032547 0.5973764 -0.4993691 -0.3650800 0.0257471 -0.0431020 -0.0844628 -0.6790558 0.4328935 0.3046905 0.3252429 0.3945441 0.0205397 0.4383724 0.9471525 -0.1031506 -0.4524246 0.2641725 -0.0057092 0.0485050 -0.0331921 -0.0452839 0.0623985 -1.0566840 0.3649163 0.1723875 0.6371112 -0.4228121 0.5682114 -0.1072535 0.0560392 -0.9132955 0.2310556 0.5431071 1.0312056 0.2911407 -0.3334427 0.6780911 -1.3542755 0.4150616 0.6981889 0.9509969 0.4725897 -0.2709152 -0.0616522 0.2419288 -0.5232701 
0.4897476 -0.5726704 -0.6761352 -0.7107522 -0.2854132 0.7002569 -0.9778629 0.0097845 -0.6930271 0.1987938 -0.0132997 -0.6286976 -0.0018912 -0.9610923 -0.7601154 -0.0322481 1.1854994 0.6237776 -0.8523582 -0.7578508 -0.8554110 -0.7345173 -0.6256386 -1.3156529 -0.3727981 0.7160633 -0.5108142 -1.0304879 -0.2128605 0.2482189 0.2675512 -0.0075326 -0.0664618 -0.4613541 0.0402280 0.0538686 -0.6669675 -1.8446090 0.3876760 -0.4150251 -0.0466607 0.6173253 0.2530040 -0.5776416 0.4582788 0.3880157 -0.1458251 0.4163667 -0.0748903 0.4657104 -0.3864923 -0.3954451 -0.0889388 -0.6283478 0.4996012 -0.7772796 -0.5147690 1.5923238 -1.2736066 -0.5806471 0.4629846 -1.9841938 0.4908267 0.2607196 0.1885079 -0.1321270 -0.7371535 -0.8996455 -0.4607921 -0.3218930 0.0748833 -0.3483782 -0.1156238 0.8202409 -0.4416977 0.3119718 0.2609067 -0.1927504 -1.3697905 -0.2404441 0.2381246 0.2334603 0.4000117 0.7219756 -0.7629910 -0.3319583 0.5904336 0.6212254 0.0704977 0.3284084 0.7267835 -0.6808265 0.4012198 0.2919729 -0.6766810 -1.0713932 
-0.6357924 0.3933165 0.0120639 -0.4367377 0.4718581 0.1637171 -0.0221754 0.1561662 -0.2186011 0.2263078 0.1673040 0.4645563 -0.4058842 -0.1297317 -0.1262665 0.3209158 -0.0974319 -0.8088358 0.2644496 -0.7564361 0.1833715 -0.4831739 0.9909297 -0.0692976 -0.4181970 -0.0819876 0.0770587 -0.4735424 -0.3824697 -0.0521891 0.2869598 -0.3434210 0.6619637 0.2688086 0.5195232 0.0738391 0.1165987 0.1163821 -0.3109085 0.0044099 0.1370360 0.7428151 -0.7010703 -0.2670336 1.1273232 0.7424470 0.6004317 0.5693129 0.2350441 0.6583517 0.3661941 -0.2606105 -0.7052453 -0.1540350 0.2232158 -0.1033697 -0.5349474 0.5096660 -0.6814727 -0.0489190 -0.4218887 -0.2539016 0.9018391 0.3983703 -0.1825663 -0.1427755 0.0847774 -0.1067221 -0.4685698 0.2245878 -0.5764998 0.8425337 -0.9444660 -0.3584892 0.4193807 0.6482575 -0.7212592 0.3518639 0.0990889 0.1059600 -1.2599989 0.0267612 0.1802230 -0.6605369 0.6572722 -0.8293104 0.6753128 -1.1782097 0.1398730 0.8013639 0.6858106 -0.2034793 0.3828373 0.3854179 0.4108829 -0.8006259 
-0.9936281 -1.4306050 -0.5892931 -1.5097147 0.5413139 -0.9644469 0.4163559 -0.4802295 -0.2990428 -1.9231827 -0.1755311 0.1152429 -0.0470272 -1.0871464 -0.9192518 -0.2156920 0.1130986 -0.3258882 -0.1041296 -1.0747656 0.0418845 -1.0744138 -0.4241181 -0.5862058 -0.7446985 -1.2693228 -1.0315592 -0.3369069 -1.0590292 -0.7948110 -0.6475354 -0.0639484 -0.7118970 0.0303419 -0.8637386 -0.6918164 -0.5325174 0.0716248 -0.3371680 -0.5721610 -0.8391209 0.2428525 -0.2385090 0.0134357 0.1733941 -0.1243149 -0.1870385 -0.7155576 0.3759182 -1.0391752 -0.3624895 -0.9850427 -1.2486247 -0.2951055 0.3209520 -0.5085552 -0.9645348 -0.4371235 -0.1768810 -0.5236193 0.3946580 -0.1724951 1.3139581 -0.5416790 -0.1976998 -0.1268168 -0.5118081 0.7738462 0.0143654 0.2901181 0.4344545 0.2678162 -1.4347072 0.2194710 -0.0784403 -0.3351402 -1.9593215 0.3679645 -0.4177689 -0.3416940 -0.8293864 -1.1224648 -0.4406577 0.1288413 0.0853205 -0.6014807 0.2231141 -1.3911499 0.0044052 -0.0652156 0.3995733 -0.2440159 -0.5271938 -0.0793404 0.7543612 -1.0812695 
0.3834905 0.4939895 0.6348197 0.2183964 0.4673886 0.7726491 0.3001414 0.9706837 0.7500784 0.6771509 0.4791193 0.6969041 0.6704591 0.7603475 0.9353294 0.1189697 0.4638298 1.1803240 0.3855268 0.6630937 -0.3180404 0.2130061 1.4202654 0.6345941 0.1724621 0.4117711 -0.4776217 0.3819037 0.6898558 -0.0243723 0.7488006 0.4248413 0.5110929 1.2122691 1.1873952 1.6402504 0.1751599 0.1661322 0.7596565 0.7064309 0.1359828 -0.0808192 1.5554306 -0.0624850 1.8167184 1.4664332 0.2765367 1.3594990 0.3734932 1.3360367 0.0646670 0.9649282 0.2546168 0.9726068 1.0704234 0.4997664 -0.6187746 0.7915916 -0.9920200 0.1643633 0.2221903 -0.0972602 1.1460072 0.9121057 0.4181200 0.7350390 0.8949360 0.7786819 -0.0337860 1.3639739 1.1919238 0.7983354 0.6297378 0.6254285 0.5805254 0.2560770 0.4171864 0.4422690 0.3535896 0.3125004 0.3652942 0.7288959 1.7381709 0.5904995 0.1830271 -1.5453066 1.0266145 0.0417796 0.6178466 -0.0428481 0.7924965 1.0584880 1.1136129 0.4589365 0.6774425 0.4565271 
-1.1525775 -0.3271388 -0.4281540 -1.0526611 0.6076328 0.5058768 -0.1553195 -0.5955677 0.0511903 -1.0498272 -0.1597510 -0.0207674 -0.5732746 -0.5968564 -1.0149132 0.5458034 0.0308579 -0.2770839 -0.1074131 -1.1989816 -0.2270817 -0.7718578 -1.1555055 -0.7102850 -0.5832826 -0.6512265 -1.5275009 -0.0768841 -0.4769091 -0.4610609 -0.6912372 -0.6325509 0.4104221 0.1245672 -0.6507542 -0.1714344 -0.3503865 -0.2029091 0.0475664 -0.8241274 0.4935721 0.5266744 0.1802820 0.6922831 0.0044699 -0.5483479 0.5448624 0.0774561 0.3294518 -1.3622783 0.5560488 0.0762931 -0.5947099 0.0936127 -0.3829378 -0.3158064 -0.7590400 -0.0588239 -0.6243344 -0.0415759 -0.2146241 0.5920595 1.0039334 -0.2390862 -0.0048114 -0.9801299 -0.8792013 1.2164303 -0.5074264 0.6901422 -0.1138897 0.8109845 -0.5091882 0.3815716 -0.4069723 -0.2526347 -1.3424413 0.7560984 1.0266709 -0.2802760 -1.0823454 -0.6654158 -1.0404688 -0.0699979 0.1533855 -0.7958748 0.5113496 0.0184914 0.1149551 0.3331459 1.1546331 -0.2420526 -0.6291520 0.3776211 0.0360470 -1.1975444 
0.6987314 0.1944101 0.8349667 0.6214110 0.4268295 1.0007320 0.9807995 3.0830174 1.9344437 0.4456758 0.6818807 0.3048913 1.7157595 1.1392128 1.6136517 0.4544518 0.1778980 0.7943844 0.7098969 1.6589915 1.0754322 0.6407727 -0.3052436 0.4615822 1.8961496 0.7587844 -0.5994785 -0.7218202 0.2858245 1.4393554 1.3058325 0.8872555 1.2840922 1.9575424 1.6871244 0.7898756 0.3634340 1.0937826 1.4267864 0.8998124 2.1275131 0.0623736 1.6289541 1.5866335 1.2550946 1.3403399 1.2563348 0.5752447 1.5604460 0.3749253 3.1532480 0.2666687 2.2915657 0.7452538 0.8468709 0.4945794 0.2058093 0.4861318 0.5847516 0.7752187 0.4903837 1.7699139 1.2399474 1.1983694 0.7153065 1.9943074 2.0908998 0.3580682 0.2750648 2.6856380 1.1070794 0.5271879 2.0978149 0.5986700 0.5717860 0.9323383 1.0921084 1.0405199 1.8020888 2.6898545 1.0622069 1.5620526 1.0519526 0.4482033 1.3636257 -0.6183622 0.5309037 0.5311101 0.7163122 0.6513814 0.3325046 2.2349046 0.3413431 0.9235250 1.1426545 1.7270053 
0.3963371 -0.4929498 -1.9816665 -2.5018250 -0.4778152 -0.7924243 -1.2526235 0.0308380 -1.0758661 0.0755263 0.4408221 0.3720989 -0.4008354 -1.9920743 -1.7942351 0.4976321 0.3056880 -0.6466453 -1.5355879 -2.4670431 -2.0319394 -1.5695998 -0.3641984 -1.5831401 -1.3996169 0.3620234 0.1212496 -1.6632480 0.7103923 -0.7586112 0.2279433 -0.2372126 -1.5836342 -1.5059390 -0.9886965 0.0139307 -0.7914171 -0.8817698 -1.0017763 -0.9160371 -0.2379029 0.4058135 0.3588467 -0.7083760 -0.2497601 -1.1153568 -0.1680297 0.2829376 0.1981473 -0.4707532 -0.1145209 0.3360183 -2.2187431 0.2755857 -0.4295482 -1.6930159 -0.4323440 -0.6407456 0.3977747 -0.3568519 -0.1720249 -2.0327057 -0.1407676 -0.6246568 0.0957568 -0.9368032 -0.5203058 -0.9513130 -1.2364779 -0.1646852 -0.3354599 -0.4967684 -1.5095136 -0.5970710 0.4574014 -0.5189839 -1.8291007 -1.2286538 -1.3198792 -0.4944118 -0.6556153 1.1039656 -0.0237071 -0.0942884 -0.4606673 -0.6350611 0.2855189 -1.8195426 0.5717445 -0.3683034 -0.3633756 -1.3216523 0.1682621 -0.7532441 0.1329327 -1.1370204 
0.6550087 0.6155865 -0.1492265 0.2679134 1.0553935 0.2032759 0.5562042 -0.7388407 -0.1600509 0.0602906 0.2325814 0.4205032 0.2320538 0.4738583 -0.4514897 0.2938124 1.0254773 -0.2374826 0.8610129 0.1830421 0.0250347 0.0032899 -0.0359783 0.1665803 -0.0767452 0.6306813 0.5128219 -0.1027717 0.4680438 -0.0282206 0.0734869 0.1547075 0.0943535 0.3222496 -0.3229227 0.3410401 0.5108298 0.0585355 -0.7164162 0.7603945 -0.6412538 0.7801814 0.4783929 -0.4224014 0.0878135 0.1588477 -0.1989633 0.4990679 0.0475127 0.2975806 -0.0641586 0.3274351 -0.2178028 0.7784438 0.5135222 0.3044563 0.9761805 0.9356645 0.4453124 0.3148576 -0.0448135 -0.1057279 0.1581360 0.3259605 0.1572482 -0.6367739 -0.2752614 0.3636335 0.0845348 -0.6424070 -0.1115351 -0.0101928 0.3304481 -0.1606989 0.1580946 -0.5750937 -0.5526095 -0.1443030 0.3829713 -0.0190448 -0.4926006 0.2178692 -0.3664320 0.5499656 -0.3615521 0.4056949 0.6533175 -0.3033309 0.3533920 -0.2315076 0.3670407 -0.3012450 -0.1143465 0.0819988 0.3341972 -0.2762418 
0.5009035 -0.0147930 -0.3429207 0.0435682 1.3734726 -0.4133524 0.1385274 0.1206143 -0.8051612 0.3291565 0.0302012 1.4163413 -0.0151775 0.1166796 -0.7243842 0.0349152 0.3144669 0.5212572 0.3221371 -0.0578092 0.0444548 0.6673955 -0.4409919 0.2844644 0.1611752 -0.1432500 0.7676622 0.4641143 -0.3406755 -0.3120119 -0.4173894 -0.4718784 0.2229596 -0.0583516 -0.2243146 0.0360058 0.0169290 0.3795809 -0.7911854 0.4815076 -0.6634226 1.4180125 -0.0152397 -0.0406766 0.1026281 -0.1200998 -0.0768283 0.2070628 0.4613403 0.2593512 -0.7206537 -0.5168108 0.1788811 -0.9388655 0.6855622 -0.3303134 0.0755076 0.5745244 -0.0583967 0.1393182 0.0947807 -0.6629402 0.4464528 -0.3120294 0.2273755 -0.3598252 -0.6477699 0.2664236 0.7619725 -0.2972446 0.3175771 0.3044423 0.1783297 0.3067297 -0.1058851 0.3369519 -0.6149628 0.4924256 0.0851197 -0.5178827 0.5078891 0.5095141 -0.1915653 -0.0697219 -0.1671428 -0.0189316 0.1075810 -0.0183283 0.1293219 -0.4838957 0.8264932 -0.7103310 -0.2454147 -0.1843625 0.2645540 -0.1732623 
0.3722354 0.3691939 0.3345404 -0.3786260 -0.4187061 0.6254985 0.2802777 0.3054921 0.2376958 0.4685109 0.1230570 0.3986055 0.2727713 -0.1513922 0.4967114 1.1251340 0.8817306 0.6603632 1.0517374 0.0047535 0.2130251 0.2110371 0.7656029 0.7720027 0.2942424 0.4886293 -0.3474659 -0.1722596 0.7334434 0.2664412 0.3610742 -0.5071360 0.8473850 -0.2153207 0.5053631 0.4231845 0.1479894 -0.1030882 0.4905985 0.5477664 0.8700893 0.0940793 0.8262626 0.1661753 0.8830205 1.3532832 0.2745061 0.8547029 0.1985876 0.6942069 -0.1562844 -0.0593442 0.1612205 0.5210103 0.3901736 0.7870877 -0.8776702 -0.0806250 -0.3507786 -0.1432512 0.2154508 -0.1358545 1.2293285 0.7825985 0.2274501 0.4386258 0.4903097 0.4736145 0.5525027 0.1280561 0.6848542 0.3292324 -0.2324998 0.1150813 0.0713814 -0.0012997 -0.4926611 -0.0634993 -0.2733299 0.0196800 -0.3193964 -0.0513517 0.6304708 0.1816610 -0.1335403 -0.9722439 0.5124332 0.0815663 0.5608702 0.2327530 0.8433496 0.8730234 -0.0124292 -0.0667132 0.0391747 -0.1048039 
1.0013018 0.1009767 0.8282721 -0.5671922 0.1778595 0.7693356 1.9074044 0.8598351 0.9096717 0.1230656 1.0106362 0.0449346 0.6958016 0.7106886 1.1415363 1.7495876 0.0959558 -0.0513644 0.9488864 2.0864524 0.4393320 -0.1876658 -1.2722751 0.3610932 1.3823789 1.1806753 -1.5649137 0.7216277 0.8637656 1.8651717 0.4912365 0.1479766 0.3685184 0.8747591 2.2117072 -0.0868389 0.9536721 0.6877379 0.9758583 -0.0728205 0.4931175 0.1613757 0.8466491 1.5577581 1.0666121 -0.7767347 1.5529837 1.0535162 0.5792941 0.7545515 0.4070434 1.1429434 1.4893258 0.7495540 0.7012988 0.2896228 -0.5176329 0.8176544 0.9212053 0.5957987 0.2370141 0.5310878 0.6128291 1.4680227 0.3533741 1.2396034 0.8061840 0.1337762 0.3219045 -0.4937808 0.4525722 1.6639079 0.5154620 0.4449615 0.0500898 1.2644345 1.1578411 1.0120715 1.4310817 1.8905901 -0.1860332 1.3477000 1.3674810 0.9799578 0.9555085 -0.7378722 1.0852691 0.2073098 0.8252998 0.7864581 0.9195003 1.2586974 0.2507581 0.7670303 1.0374294 0.2178637 
-0.3982305 0.5106954 -0.2677596 -0.3625010 -0.0332188 0.0599397 0.2538606 -0.0441113 -0.7164572 -0.5919607 -1.0880943 0.0153784 -0.4283241 -0.2785232 -0.4663690 0.1489141 1.2417015 1.0233105 0.0563526 -1.0571998 -0.1161498 0.2782848 0.2966123 0.5153556 -0.5190205 0.4603227 -1.0278982 0.0116471 -0.2535296 -1.6879330 0.0331233 0.1439799 0.3826860 0.3338437 0.0922522 -0.1010877 -0.7784044 -0.4405465 0.2082702 0.2427124 -0.6078609 1.0285955 0.1045018 -0.2913763 0.4241295 -0.2308047 0.5308697 -0.6180660 -0.4468281 0.3115445 -0.6184792 -0.9597262 -0.4570682 -0.5302830 1.1345132 0.3520852 -0.8615460 -0.5786474 -0.8017118 -0.4104942 0.3739095 -0.4380397 0.3394961 0.4714601 -0.2779258 0.0839591 -0.6545540 0.3593358 0.7476913 0.0662859 0.3336347 -0.0177301 -1.0291464 0.4663133 -0.0818971 0.2547015 -0.9412469 0.2810496 -0.6912710 -0.1895587 0.0737323 0.0551956 -0.0130217 1.5488708 -0.4308386 -0.9881693 -0.0573652 -0.7440401 -0.2611944 0.4745076 1.2524691 -0.2750246 0.2917463 -0.1839866 -0.4680366 -1.0723836 
0.2990895 0.4626226 0.4878756 -0.4681555 0.5580070 0.6121950 -0.1333547 0.4120773 -0.6046473 -0.4130745 -0.0671358 0.4417962 -0.2365635 0.0926723 -0.2684189 0.2013852 0.4665406 0.6365225 0.2725358 -1.1539605 -0.3555107 0.1229126 0.4431362 0.7384786 -0.5189208 0.0583187 -0.1254048 -0.3790974 -0.0406086 0.7844280 0.8211394 -0.1868331 0.1994939 0.0791843 0.1930681 0.0091508 0.2791931 -0.6805067 -0.3277716 0.0968424 0.2520259 0.5087587 0.2533486 0.1035969 0.7234516 -0.1292810 0.6231045 0.9527574 -0.4480590 0.0947858 -0.1064388 0.0290786 -0.4138645 -0.6498269 -0.3838511 -0.0232883 -0.8418415 0.7959353 -0.8656322 0.0046424 -0.0533187 -0.4869526 0.6181505 0.7613321 0.4722105 -0.4300669 0.3525676 0.0315075 0.3892062 -0.3646412 0.0029034 -0.0440220 -0.4797978 -0.1479410 -0.0391743 0.0500318 -0.1670771 -0.1892320 -0.2738411 -0.2726331 0.4138674 0.8094717 0.1121484 -0.4142174 -0.4032668 -0.5136524 0.0711301 -0.3129092 0.0148497 0.6044320 0.0335797 -0.2625481 0.6455798 -0.9133379 0.0173420 -0.2962689 
1.0174690 -1.2800441 -0.5585601 -2.3560547 0.8977072 -1.5620996 -0.6751193 0.8614356 0.7141333 -1.8755039 0.9988880 1.3718167 0.0747062 -0.4360042 -0.2660199 2.3682363 -0.3873746 -0.4411655 -1.5923635 0.0973354 -0.8741626 -1.5303886 -2.4556269 -2.3523345 -0.8989742 -0.9790982 0.7903026 -0.2174427 -1.4025764 -0.9290471 -2.2118422 0.2168394 -1.3634176 -1.6502163 0.2935852 -1.7987245 0.0873148 0.6356175 -0.4595311 -1.5608453 1.4474908 0.0352904 1.6658342 -0.1880750 0.1218757 -1.5901228 1.4865271 0.1756358 -0.0798404 -1.1597519 1.7057048 -0.0098645 -2.0258196 -0.5657631 -0.6002619 -2.1033763 1.2800684 -0.9043671 0.0593018 0.2762257 -0.5819274 -0.9790190 0.1109252 0.5308773 -0.8026071 -1.4678082 -0.1885429 -0.2843565 -1.5684863 -1.2679642 -0.9884155 1.4553837 1.2858841 -0.6300591 1.0019377 0.4751464 -0.3006183 2.2603238 2.2371378 0.0390113 0.6723316 0.1446341 -0.8463200 -0.7408531 1.4474799 -0.2451437 0.2167033 0.5930338 0.7844028 2.0468841 -0.9052611 0.9178005 -0.2884981 -0.8940093 0.0228796 -1.1689824 
0.6777634 0.3526083 0.2492614 -0.1807941 0.5567424 0.1521370 -0.2406942 -0.2470097 -0.7617143 0.3190104 -0.6229489 0.3284031 0.1037451 -0.3587037 -0.5191883 0.0095224 0.3446059 0.4429740 -0.0674913 -0.6158007 -0.1634410 -0.5257926 -0.1644934 -0.1670640 -1.0256868 0.4408007 -0.6274979 -0.7594147 0.0277665 -0.1132702 0.6474911 -0.6957369 -0.4960811 -0.1221927 -0.4260333 -0.4288269 -0.0165406 -0.4809689 -0.2618736 0.0865039 -0.5347863 0.8884975 -0.0436393 0.1168782 0.8021916 -0.0903408 0.8954719 -0.2705920 0.1211411 -0.2263912 -0.5345600 -0.4466140 -0.2976167 0.4314536 0.8085027 0.0019309 -0.5355698 -0.0012781 -1.3092112 -0.4610561 0.6618049 -1.2304177 0.4136348 0.9291907 0.7285883 -0.4721644 0.2814063 -0.0275502 0.1674105 -0.3383320 0.5577269 0.1027058 -1.0902859 0.8673061 0.1604910 0.1810761 -0.5453255 -0.4057230 0.1648685 -0.4639447 0.7090428 0.5052647 0.0503117 0.7895058 0.4822325 -0.4003511 0.7403346 -1.9060304 0.7015027 0.1664385 0.5254850 -0.0472945 -0.2423770 1.1396367 0.9230805 -1.3096353 
-0.4136915 0.1594110 0.0479727 0.4213736 0.3379767 -0.2769461 0.2735910 0.1046450 -0.2388974 0.3926748 -0.3303600 -0.1278981 -0.2746336 -0.0075526 0.2895395 0.1593029 0.0051741 -0.0778996 -0.1404387 0.4233804 0.2784011 -0.0158994 0.0383792 -0.2025076 0.1556140 -0.5252243 -0.0003118 0.4184234 -0.0122639 0.2570351 0.5582866 0.3974924 0.4118030 -0.0986952 -0.1487769 -0.3247845 0.2597513 1.1153358 -0.6023351 -0.2061657 -0.2223574 0.6736177 -0.3970217 -0.0412673 -0.3177254 0.2896844 0.3178981 0.6032788 -1.8615309 0.3752614 -0.3847507 -0.7433127 -0.1556661 -0.7192815 0.2427520 -0.2252668 -0.4496167 0.5496526 -0.4282876 -0.4761065 -0.0207940 -0.9672911 0.0438803 0.4825106 -0.2177554 -0.4213160 0.1029533 0.0561607 0.3308237 -0.1563097 -0.2568060 0.3892761 -0.2154872 -0.2808604 -0.0282855 0.2452788 -0.2481394 -0.2106547 0.4385167 -0.6949314 -1.0163496 -0.3666556 0.2680693 0.4403686 -0.0622729 -0.8482412 0.5028229 0.0903360 -0.3950675 0.2145204 0.3323297 -0.0303082 0.0630830 -0.1300620 -0.0203139 -0.4336258 
0.8171243 -0.4437616 0.5700244 -1.2152961 -0.2532450 1.1288242 1.1205768 -0.4261333 0.5669421 0.1706118 0.4037248 0.9894262 0.8276810 0.3264466 0.0822205 1.1906764 -0.3286860 -0.2092491 0.3165222 0.0625984 0.3993311 -0.1245813 0.8636658 0.1403408 0.4854310 0.8169025 -0.5333277 -0.0395903 0.0906496 -0.5126094 0.0922430 -0.0602463 0.4476821 0.5274277 1.0679042 0.3022212 -0.1571083 0.5669232 0.4930296 0.2531551 1.2572211 0.8754600 0.8315704 0.5280540 1.6942598 0.9016787 1.0412845 -0.5080741 0.3773451 1.5210163 0.8170933 -0.4337245 0.0639930 0.0653652 0.0577988 0.1355333 -0.5129833 -0.5114583 0.4052245 0.7302702 0.2434158 0.1703735 1.4984055 1.1920176 -0.8004293 -0.2476032 -0.0365179 0.0969339 -0.2276611 0.0696948 -0.3563499 0.3821966 0.1612285 0.4966464 0.3591013 0.3470947 -0.2932264 1.3172622 0.7050566 0.2874067 -0.7642155 0.3636943 0.9464262 0.8198883 0.3377162 -0.3457741 1.5930866 -0.2887072 -0.0258498 1.1207236 0.7839519 0.3223278 0.3535627 -0.9961497 0.4642748 -0.9275679 
0.6798874 1.0125508 0.2800314 0.6849931 -0.5095695 0.2981112 -0.0238925 0.2807315 0.4553278 0.8633982 0.9580751 -0.3533610 -0.4305765 0.6861194 1.0626947 0.0753625 0.3057688 0.5504772 0.0813926 0.5724649 -0.1244624 0.8321198 1.1381892 0.4790635 0.0663350 0.5099177 -0.2965660 0.2186044 0.7377821 0.8122125 0.1544091 -0.2496078 0.5468341 0.7250638 1.4542461 0.2450041 0.0235510 0.5068125 0.5262793 0.2704075 0.5997873 -0.1708739 0.4342699 0.2770096 0.9171304 1.3330637 0.6898869 1.1496641 -0.4783671 0.4921954 0.0204410 -0.8907286 -0.2401676 0.7511513 0.8968646 0.6202484 -0.4829633 0.9542133 -0.1681255 -0.2448549 0.8773053 0.0681795 1.0573614 1.1976049 0.9521226 0.5056964 -0.2813290 -0.0310217 0.4192835 0.5887636 -0.3783017 0.2625711 -0.1134902 0.4104736 0.0562697 0.4024517 -0.3793799 0.4057312 0.0429420 0.5734239 0.0347310 -0.1887133 0.9339864 1.1954547 -0.1274166 -0.5963872 1.2001802 -0.0748973 0.1628746 0.5130083 1.1151863 0.9003558 0.6616298 0.2807167 0.6905839 0.1029070 
-0.1884823 0.1450048 0.0063375 0.5245570 0.5983683 -0.2879427 -0.2526429 0.1507484 -0.6339287 0.2246291 -0.2414911 0.6674878 -0.0140704 -0.3604690 -0.5969571 0.4322708 -0.0725609 -0.1597524 0.6285659 0.7967360 0.4921623 0.2496394 0.2955383 -0.2005232 -0.3245451 -1.0074376 -0.0243668 0.7320143 -0.2935382 0.3482316 0.6092019 0.5243863 0.2494995 0.2953735 -0.1391782 0.0509433 0.4538308 0.2444917 -0.4154417 0.0252033 -0.7200068 0.7078220 -0.2230054 0.0985285 0.1925355 0.4362176 -0.2205094 0.1282520 -1.2240928 -0.0509185 -0.0965339 0.2173073 -0.8246423 -0.9649700 0.1547591 -0.3422170 -0.5601667 0.1565206 -0.0914558 -0.2747999 0.0947904 -0.7062173 0.2770882 0.0901691 -0.0589603 -0.3348916 -0.5661304 0.9796921 -0.1727785 -0.9982846 -0.4585995 0.0154060 0.3302156 0.2765905 0.0621969 -0.4565643 -0.3471360 -0.3174443 0.1456777 -0.5990676 -0.1688836 0.2041463 0.3430828 0.6237732 0.1479153 -0.4817764 -0.0060960 0.2489174 -0.3731582 0.0375436 0.3495066 0.0844015 0.1680122 0.0754031 0.5553153 0.0515542 
0.3770155 0.7919647 0.5495172 -0.0084733 1.1688854 0.1045591 0.3072342 -0.4484422 -0.9383432 0.0080429 0.2875933 0.9682196 -0.6719960 -0.3753117 0.0290450 -0.3096663 0.0655292 -0.1578904 0.2779959 0.2975201 -0.0511395 0.5573131 -0.2994900 -0.0029865 -0.1727726 -0.1546189 0.4752256 -0.2817694 0.6941859 0.1089948 -0.2595921 0.6377291 0.0312595 -0.2531818 0.3485066 -0.1862388 0.1551959 0.4953795 -0.0675612 0.6358961 -0.2098803 0.3730950 0.4876606 -0.5837840 0.2283431 0.3861365 0.0666392 -0.4013807 0.6015093 0.2808259 -0.1099443 0.4588632 0.1653786 0.6198095 0.0179016 0.4489625 0.8847592 0.8730897 0.5817502 0.4277485 0.5211828 -0.0479854 0.4324669 0.0712811 0.4943251 -0.6242376 -0.6177982 0.2569382 0.1387374 -0.0519408 0.3994057 -0.0858895 0.0300405 0.3898856 -0.2179273 0.1402601 0.0998117 0.3076360 0.3468278 -0.0099335 0.1791183 0.1183679 -0.2150415 0.4344732 0.4798722 -0.0205835 -0.0308770 -0.3958439 -0.0199104 -0.2584555 0.4730315 0.0071896 0.0804837 0.2430755 0.0749120 -0.7982210 
0.0736062 -0.6230809 0.8723727 0.2066581 -0.3751843 0.2122462 0.1530081 0.0276325 0.1604352 0.3460053 -0.4900734 0.1219009 -0.4115186 -0.2966986 -0.5804841 -0.3109672 0.5502574 0.1296876 0.3576331 0.2249190 0.4491991 -0.4285538 -0.5420828 0.2014048 -0.6315226 -1.1822466 0.0846583 0.3667315 0.1000152 0.5048396 0.1576632 0.5662897 0.3080106 -0.3979169 -0.3202065 -0.4360799 0.6451268 1.1430405 -0.6732926 0.5542569 -0.6160507 0.2593106 0.0053951 -0.5221572 0.5952366 0.0825691 -0.3146895 -0.1044610 -1.7504074 -0.1302971 -0.2901128 -0.1276129 -0.0788931 -1.1005384 0.6732331 0.3860042 -0.7738039 0.8051253 -0.2400975 -0.4078357 0.0242341 -0.6247071 -0.0692269 -0.2776657 0.8052228 -0.6471570 -0.5344520 0.8103499 0.8243265 -0.6972946 -0.2187997 0.4361116 -0.1932326 0.0790727 0.7727828 0.1325869 -0.5824716 -0.4395942 0.1885782 -0.0386826 0.1644359 0.0306532 -0.5199913 -0.6815384 -0.0153078 -0.1794261 0.6514863 -0.1208704 0.2269233 0.0087034 -0.0802386 -0.2974766 0.5777909 0.4462786 0.8635458 -0.1288853 
0.0595655 0.8199070 1.1841877 0.1763877 0.5197285 0.2489150 -0.0546042 0.0360145 -0.2830822 0.6234124 -0.0589491 -0.2569774 0.3275995 0.6565412 -0.0222999 -1.0147881 0.8798696 0.0216813 0.5577938 -0.4469211 0.0286371 0.1353992 -0.3517852 1.2553822 0.2023156 -0.0339331 -0.5683633 0.2653288 1.0334853 0.1375594 -0.3041790 0.2092569 0.2387286 0.0360060 0.0609589 0.0697545 0.4081975 0.2691050 0.5371942 0.3901510 -0.2694197 0.6814671 0.3676898 -0.0065778 0.9436322 0.2171668 -0.7075748 1.0196332 -0.1931305 0.3479810 -0.1785643 -0.0020175 0.2914297 -0.2943291 0.7478988 0.5374843 -0.5175026 0.4529584 0.2040175 -0.1812906 0.5221356 -0.4819412 0.7009582 0.9427567 0.3495980 -0.1499867 0.0273598 0.0506043 -0.0343981 0.0834187 0.4742358 0.1383147 -0.8632045 -0.1732796 -0.7604158 0.6955437 -0.0730602 0.3203527 -0.5031726 0.5148398 -0.3638996 0.5155608 -0.0928210 0.5312379 0.2391261 -0.6976574 0.6853146 -0.4719380 0.7862229 -0.3545194 0.6842638 0.2640325 -0.1772305 0.3289798 0.4058696 0.4961228 
0.8892153 0.4915392 0.6471504 0.2923399 1.1301991 -0.3422001 -0.0658241 -0.6675139 -0.0160746 -0.1372862 0.2384754 0.5109461 -0.4083771 -0.1645057 0.0679731 -0.2496365 0.2480932 -0.0293159 0.3718225 -0.0536398 0.5653957 -0.0726909 -0.5558037 0.5576336 -0.3576775 0.4572255 0.1690205 -0.4837066 0.6698016 0.3280261 -0.2662756 0.5578866 0.3387636 0.2928248 -0.0348669 0.1891702 0.1089551 0.0160272 0.1189069 0.2440379 -0.0777443 0.6997936 -0.0326922 0.0104655 0.4873231 -0.3056568 -0.0046215 -0.3773626 0.4860973 0.0499229 -0.0729767 0.5612278 -0.3363728 0.3942607 0.4086606 0.6622876 0.2127500 0.8802994 0.4833841 -0.0495184 0.1459272 0.3495389 0.4366479 0.1932630 0.8085437 -0.7199131 -0.2800518 -0.0593517 0.5654139 -0.6713231 0.1309039 0.1519413 -0.1857584 0.6931785 0.0529584 -0.5051758 -0.5041957 -0.3527235 0.2934552 -0.0656594 -0.4602815 -0.2103338 0.3407771 0.5429051 0.2690199 0.6631103 -0.1826761 -0.2516463 -0.2096134 -0.5364486 0.1124858 0.0940759 0.1495166 0.2321193 0.1432124 0.2320627 
-0.1984067 -0.3339913 -0.3382936 -0.0842768 -0.6362258 -0.6901798 -0.2445460 -0.0474951 -0.0199649 0.9202734 0.1577489 -0.1213156 -0.2091211 -0.7985152 -0.7243555 -0.0737069 0.7494601 -1.0200863 -0.0651489 -1.2542160 -0.2827899 -0.2077248 0.2599163 -0.5970062 -0.3744595 -0.1817867 -0.2299886 -0.8731309 0.2570363 -0.7008793 0.8882567 0.3134698 -0.6967595 -0.2909325 -1.0007010 0.0722636 -0.2233021 -0.2436898 -0.4214743 -0.6709100 -0.2379445 0.1009693 -0.1733623 -0.1885570 0.3982280 0.3365223 -0.0987152 -0.5160756 -0.7412076 0.4119563 -0.4740032 -0.5436804 -0.8275174 -0.0239713 -0.0238851 -0.0620726 -0.8704016 -0.2532887 0.0449227 0.2250047 0.8360634 -0.1672050 0.3766365 -0.0713827 0.4940784 -0.9107492 -0.1957007 -0.5175786 -0.2614485 -0.9676807 0.5233708 -0.5511533 -1.0115042 -0.2684035 0.2897292 -1.0509349 -1.2562680 -0.2202289 -0.3366200 0.0834987 -1.1105172 0.1492865 0.5665526 0.0923707 0.2827337 -0.6481424 0.0127382 -0.0336704 -0.0013538 0.1705521 0.3232595 -0.6304788 0.8021746 0.2766420 -0.1756173 -0.8490914 
0.2367464 0.6517672 0.1426239 0.6176407 -0.5408208 0.4693510 0.1682941 0.0320040 -0.5306529 0.4790018 -1.0218482 0.7250718 0.2617376 -0.4036347 0.1637792 -0.2696857 0.1639696 0.1607533 0.5934237 0.4231814 0.3442547 0.7717548 0.4570123 0.1364044 -0.1955977 -0.4550395 0.7051136 -0.3563579 -0.0329784 -0.1378190 0.0993655 0.6524587 0.1022145 0.0325129 -0.0029507 0.1757971 -0.2611878 0.4196091 -0.2645588 0.0659401 -0.1360655 0.7282704 -0.2896223 -0.4532861 0.6260907 0.4403648 -0.1108792 0.3340128 -0.1517148 0.5615003 -0.6504270 0.3034735 -0.2588467 0.7120135 0.1839600 0.9265627 0.1712661 0.3353693 0.1088224 -0.1083563 0.1939675 0.1700963 0.5982130 0.1290735 0.3751178 -0.3721243 -0.7302034 0.2112105 0.6063418 -0.8398929 0.1189998 0.1733392 0.3562430 0.3781355 0.6376464 0.2035976 -0.1464371 -0.0063435 -0.0639103 0.1474829 -0.3192773 0.0807970 -0.4573159 0.1871350 -0.0285694 -0.3338291 0.6700293 0.1024852 0.2564941 0.2814843 -0.1219681 -0.3693127 0.2494969 0.7858745 0.3072483 -0.1590207 
0.2219432 0.8922577 0.6118610 -0.1279574 0.9711258 0.0908271 -0.2378264 -0.4874346 -0.8537162 0.6764818 0.3145641 0.8340120 -0.1789084 0.3534811 0.0798449 0.3581396 0.7355680 0.2206644 0.3596442 0.5439219 -0.1388497 0.7904273 -0.1704034 0.0163126 -0.4108698 0.0230991 0.0044282 -0.4663406 0.0031264 -0.0936787 0.2070184 0.0085354 0.7432864 0.0473339 0.1787321 0.3319207 -0.3059219 0.3644812 0.1372485 0.1525669 -0.6629764 0.0587494 -0.2584071 0.0986709 -0.2974603 -0.3354124 -0.3355337 0.0699081 0.1263732 -0.3253603 0.2078213 0.8737869 -0.5057581 -0.0691177 0.2470905 0.5700401 -0.1357332 0.1921020 0.1736445 0.5077042 0.0343434 0.3609896 -0.1231531 -0.3006790 0.2432762 -0.5061920 -0.0880904 0.1294515 0.1399562 0.1135955 0.3562211 0.3651131 -0.4045264 -0.2519280 0.3585414 0.3392713 -0.2007866 0.5299633 -0.0677722 -0.6688577 -0.5345583 0.5455387 -0.1861417 0.2357900 0.0511482 -0.1248321 -0.0377437 -0.3485416 -0.2222786 -0.5312909 0.4835590 -0.5759885 0.0168643 0.7611881 0.3670657 -0.6551345 
0.8906391 -0.0308973 -0.1702549 0.3203543 1.4888600 -0.0154444 -0.0516334 0.1981131 0.0340672 0.1432192 0.2358371 0.7068023 -0.1141497 0.1208363 -0.5735006 0.1443268 -0.1753259 -0.5411027 0.1063358 0.2398916 0.4139811 -0.0608609 -0.0672017 0.0838773 -0.0895859 0.2587411 -0.2869697 -0.3954583 0.9045304 0.4596656 -0.2824913 0.6915846 -0.1094785 0.2516248 -0.0313878 0.6380832 0.1523621 0.0172957 -0.3535807 0.7701092 -0.0843281 0.3602522 -0.4202049 -0.3380184 -0.2840570 0.3051446 0.0080132 0.5800449 -0.1057996 0.2085013 -0.6534052 -0.1962912 -0.3818151 -0.5478294 0.5831118 0.5167201 0.0943962 -0.0232964 0.1267132 0.3917733 0.7166830 -0.5346689 -0.2341676 -0.2636274 0.5155458 -0.4688068 -0.1450075 0.0737606 -0.1307741 -0.0911071 -0.0573402 -0.3007703 0.0278666 -0.1819322 0.3050511 0.0630788 -0.1284352 0.3149568 0.5224984 -0.3549138 -0.4498767 -0.2761005 0.2336966 0.2256118 0.1103608 0.1117011 0.0466738 0.5350631 -0.3436575 0.2022519 0.5411178 -0.0749967 0.6109924 0.7859366 0.5312693 -0.5106318 
0.0802536 0.2266281 0.4744803 0.7344234 0.8013269 -0.0195103 -0.1248774 -0.1663255 0.0382539 0.1034132 0.5325533 0.1032633 -0.1941066 0.1445639 -0.7820475 0.3429777 0.3555655 -0.2154483 0.0047856 -0.1512355 0.1977695 0.9921201 -0.2308426 0.3046155 -0.4790926 0.1301777 0.7076217 0.4244443 0.3669664 -0.3262645 -0.2174765 0.0408124 -0.1855623 0.1333590 -0.4963571 0.1839308 -0.2629365 0.6938393 -0.0691788 0.0443082 -0.1470790 0.3520677 0.8119799 -0.4051889 -0.2745318 -0.0639135 0.0073418 0.1572911 -0.5216913 0.1069315 -0.6363070 0.5962116 -0.2748864 0.8237027 0.1081448 0.6296920 0.4761073 0.5181408 -0.0318445 0.5521696 0.2664753 -0.0032821 -0.1229700 0.2715921 0.5920759 -0.7773186 -0.4330721 0.8881856 0.3243798 -0.5953558 0.2124188 0.1283307 0.1725147 0.0851583 0.3150513 -0.0804802 -0.0456106 0.0716974 0.3119507 -0.7951251 -0.5536071 0.2707258 -0.1147948 0.7793732 0.5248885 0.4658355 -0.2172535 0.3001421 -0.3964477 -0.4029911 0.1952215 -0.8528373 -0.1144991 0.5549747 -0.0643135 0.0509403 
1.0326480 0.8346964 0.5704929 1.0105566 0.1208831 0.5544433 0.4620822 -0.6991761 0.2405961 0.5290370 -0.9381852 0.1762091 -0.5426877 -0.0698134 -0.0848287 -0.3218833 0.5161936 0.4339974 0.7325303 0.3859225 0.4756230 -0.0091345 -0.5857552 0.7194457 0.0544023 -0.0390351 0.1342697 0.5478889 -0.1845824 -0.4995387 0.3373803 -0.8582089 -0.0363031 0.3991969 -0.1021986 -0.3981846 -0.3366180 0.1927201 -0.6552255 0.4241461 -0.6047556 1.2041805 -0.1314804 -0.5949398 -0.1271273 -0.3060307 -0.1435723 -0.2600502 -0.7653488 0.5213728 -0.6627133 -0.1621451 -1.0285515 0.7404830 0.6724901 0.4727181 -0.3100803 0.6718574 -0.7915752 -0.3641443 0.7754619 -0.6966103 -0.0438658 0.2593468 0.1777859 -0.2295730 -0.7386780 -0.6074770 0.6302889 -0.1361117 0.4181605 0.1047725 0.1808231 0.6057648 -0.1806704 0.1081917 0.3758471 -0.2693683 -1.3900878 -0.3964770 -0.5395848 -0.4527536 -0.0047407 0.2137509 -0.5548189 -0.6665010 0.7336117 -1.5171098 -0.3540268 -0.3294722 0.4113231 -0.4611469 0.5738501 0.1151114 0.9298916 0.0016729 
0.0309716 -0.0532934 0.3511465 -0.2558006 0.7164468 -0.2393077 0.6556886 -0.6338393 0.2367682 -0.0494179 -1.3635500 0.2190436 -0.1483582 -0.2218799 -0.0508862 -0.0061425 0.3765771 -0.4277423 1.0104366 0.5678188 0.6679713 0.4860437 -0.8555449 0.6495324 -0.0368482 -0.8435319 -0.6196938 0.1960891 0.3440509 0.3191402 -0.3634495 0.0049289 0.1253169 0.1700305 -0.0075840 -0.1574565 0.3623408 0.3477129 -0.2106321 0.2943410 -0.7929160 0.5057295 0.3449339 -0.4972854 -0.4057892 0.0881787 0.1726771 0.3859031 -0.9385677 0.5532986 -0.6260911 0.8661418 -0.4022378 -0.2193673 0.3474897 -0.0492194 -0.7639203 0.8114563 -0.2997619 -0.4563107 0.2299687 -0.2336653 0.7853194 -0.6777615 0.3880893 -0.6724382 -0.6525749 1.8829904 0.2676917 -0.5619047 -0.6381724 0.1474677 -0.5206749 -0.3907255 0.0984239 -0.0870744 -1.0934591 0.3999795 0.1932240 0.2240118 0.0588818 -0.0110525 -0.3464576 -0.0416321 0.3523730 0.0129302 0.3359393 0.2217301 0.2520775 -0.0241059 0.4999642 -0.4510529 0.2206412 1.0986328 0.2719819 -0.3096583 
0.8805196 0.5233781 0.8862956 -0.3248338 -0.0198394 0.1526365 0.7086413 0.2819638 0.7891503 0.2074880 0.6225915 0.4385013 0.8096786 1.0209239 -0.4589373 0.9704020 0.3981839 0.9923868 0.3205213 1.1212729 1.5331497 0.3512302 -1.0422773 0.4765938 0.2280249 0.5480313 -0.8117267 -0.4253570 1.0585940 0.8689363 0.1297661 0.2273852 0.9724276 1.0149627 1.3672602 -0.6316448 0.6947082 0.4278778 1.1302766 0.5347337 0.4172566 0.4661945 0.6621726 0.1675365 0.1245732 -1.3048486 1.5351001 1.4301780 -0.1518350 0.9083976 0.5124616 0.6957486 0.3713459 0.9409639 0.3977306 0.1341262 -0.3799548 0.4666714 0.0343867 0.5306168 0.4679934 -0.1566206 -0.3772069 0.0482337 0.6088112 0.6035843 0.3587081 0.9984056 0.5693488 0.2300826 1.5295081 0.8817310 0.7006371 0.6444125 0.3401112 0.5127965 0.6955161 0.1116598 1.0949682 0.7996305 1.1283638 0.8946560 0.4342527 0.2794924 0.9018925 -1.1473909 -0.3582653 0.9329978 0.8088761 1.1924378 0.4226729 0.4125153 0.0947766 0.9974582 0.8718690 0.3986497 
-0.2300516 -1.4756183 -0.2220519 -0.3438427 0.6657762 0.2535201 0.3579889 0.7914006 -0.3572847 0.2124843 2.3651970 1.1217760 0.3910109 0.5385902 1.1562006 0.4645423 -0.6907911 0.2240517 -0.2552655 0.6892117 -0.1425090 -0.6261365 -1.2717224 -0.6160553 0.4623119 -0.2606856 -0.9394187 -3.4069050 -0.2048566 2.2603733 -1.3312756 -0.3940914 0.6899797 2.0138600 2.3798859 -1.1273153 -0.1375178 0.2007041 -0.4076850 -1.3522601 1.8100008 0.5583199 0.2159159 2.4105870 -0.2338240 1.4761949 0.3467589 -0.7433936 1.2944129 0.1376581 1.8817811 0.1771058 2.1504729 0.1381867 -0.1089961 -0.7426883 -1.1745925 -0.7777302 1.6448498 0.0409711 0.5293912 1.0297276 1.2684463 -0.4343461 -0.1821396 1.6365557 1.8714996 -0.2268322 -0.1803872 1.9368123 0.4760219 1.6067103 1.8407706 0.0603563 1.6618247 1.2342911 1.1662607 -0.2284117 1.9204086 0.8020266 0.6275956 0.5481400 -2.1649492 -0.2370830 0.5181119 -0.8124181 0.8632032 -0.0595893 0.2712598 0.8076489 0.0822379 2.4587268 0.2435658 0.3806471 1.0944591 -0.1567535 
0.3112239 0.6307638 0.3893266 0.2400811 1.4916025 -0.1309333 -0.1402282 -0.6208069 -0.2067917 0.0329419 0.1074565 1.2260955 0.1748316 0.3796795 -0.0717798 0.0011094 0.0584979 0.3339642 0.1700056 -0.0190714 0.0379762 0.5411091 0.3022632 0.3451839 0.0830539 0.0583333 0.4418016 0.2296764 0.6598105 -0.3027060 0.1049661 0.3085508 -0.1524571 0.0264513 -0.4913812 -0.0972849 0.4087051 0.2714937 -0.0794637 0.4299876 -0.4969338 0.1972090 0.1523821 -0.4724218 0.3230206 -0.2854175 0.5879869 0.1902287 0.0447503 0.0442494 -0.1088226 0.9052822 0.0549181 0.1412214 0.7426163 1.0019079 0.6581662 0.6257843 0.0455944 -0.0710751 -0.3311490 0.1740182 0.5520079 0.5318924 0.5717855 -0.5537705 -0.5368062 0.1475413 0.8380447 0.2192942 -0.1527134 -0.2411066 -0.2807944 0.0590903 -0.0666467 -0.1130435 0.1773525 -0.1326545 0.6617844 -0.6362763 0.1606537 0.0430434 -0.3392948 -0.0823381 0.1348619 0.6161970 0.0610142 -0.1047296 -0.5514512 -0.5898560 0.0235857 -0.4934925 0.0521945 0.5227906 0.0886758 -0.4261087 
