----------Weights------------
0.9012155 0.8588463 0.7656180 0.4481005 0.1300588 0.3130428 0.6769937 0.4591973 0.1922876 0.5427960 0.1301781 -0.2929920 0.5787759 0.4244435 0.3571039 0.6885433 0.7365527 0.2117412 0.8805814 1.0147384 0.7998698 0.5116929 0.8639327 0.3211338 0.0004406 0.1561923 0.3829512 0.1481292 0.0075665 0.5208289 0.4366860 0.1623025 
0.8083778 0.2715737 0.6823875 0.7919679 0.0674804 0.8887688 0.4937419 0.7374085 0.5962797 0.6997211 0.9649672 0.6810351 0.3362687 0.0506788 0.8873398 0.9548522 0.4079657 0.1165761 0.1585431 0.0540529 0.8688822 0.2604927 0.7957344 0.7098113 0.4214181 0.4307704 0.6691329 0.6717740 0.4502718 0.7284530 0.1361916 0.5133773 
0.9107013 0.3512761 0.9495141 0.2019848 0.9075786 0.7942005 0.8825105 -0.0328849 0.2065638 0.2624489 0.8208713 -0.1790862 0.5294892 0.8588640 0.4684458 0.2484915 0.3997540 0.9002987 0.9192789 0.3583347 0.5400124 0.8905724 0.9649338 0.6066603 0.7170497 0.8157880 0.9261353 0.6696041 0.1288942 0.4909206 0.5709328 0.8103578 
0.4833956 0.9812219 0.5363413 0.8787498 0.3342261 0.5257727 0.4890709 1.0811081 0.2261584 0.1507130 0.2079085 0.4720195 0.2246085 0.4555467 0.6553256 0.8785797 0.3847541 0.1061084 0.7288427 0.5477988 0.5132659 0.7369069 1.0075789 0.0733099 0.3047378 0.3321263 0.2309368 0.4803045 1.1067720 0.3543026 0.9825338 0.0736837 
0.3913194 0.7673502 0.8594726 0.3594357 0.2891312 0.1618664 0.2907176 -0.1249964 0.7430837 0.1220526 0.0982745 0.4143823 0.6542077 0.7932239 0.8229533 0.4755771 0.7310705 0.1394255 0.4691611 0.2990528 0.2244946 0.6054659 0.7399389 0.7174534 0.6333180 0.0814193 0.5970213 0.1357181 -0.2422096 0.3724152 0.9526959 0.9796507 
0.5733308 0.4994563 0.3406061 0.5758572 0.4526037 0.4510048 0.6279164 0.8150888 0.7992492 0.9221317 0.1207227 1.2624090 0.7470551 0.1271046 0.5412056 0.9364930 0.9129465 0.7184156 0.2517161 0.1090942 0.1278407 0.8445856 0.7081712 0.9856754 0.9468501 0.0632497 0.4803485 0.4152478 0.9057668 0.8687855 0.0942026 0.6649204 
0.1237252 0.7783344 0.4951485 1.0152041 0.2635233 0.1978725 0.4272848 0.2265395 0.6550190 0.2839262 0.8325374 0.5084458 0.8185328 0.1496814 0.5577587 0.8169271 0.3240127 0.2121956 0.4994050 0.0571390 0.2997519 0.8045716 0.1180005 0.9170561 0.0937061 0.2454752 0.2531036 0.2369154 0.1724131 0.5589506 0.4887967 0.1656519 
0.5432839 0.0577275 -0.0081707 0.1716486 0.2835188 0.6783495 0.2450478 0.5236912 0.6229335 0.4787643 0.6949431 0.4424597 0.4268314 0.4038305 0.4579029 0.9183580 0.3453826 0.9275438 0.6818137 0.1414920 0.4836823 0.1423766 0.2089254 0.9011915 0.5020616 0.3437092 0.5397966 0.7607267 0.8450565 0.4721929 0.7536856 0.1783073 
0.3146265 0.0460778 0.9555259 0.4944794 0.7582171 0.5273897 0.1662839 -0.2096961 0.9260503 0.9827332 0.8160954 -0.4082487 0.9095517 0.7447100 0.5092056 0.9171055 0.1330638 0.6902091 0.9402148 0.6409565 0.1623703 0.2443071 0.5460653 0.9539324 0.2994705 0.0558776 0.1191260 0.6611472 -0.3054349 0.4421220 0.8323558 0.2249524 
0.2451762 0.4348073 0.2234778 0.4781482 0.2921778 0.5796916 0.0571031 0.7981073 0.5032861 0.2394985 0.0972704 1.2510994 0.9262909 0.5212423 0.6701012 0.5175901 0.5615878 0.9025756 0.6935938 0.1445395 0.0402867 0.3352783 0.2428130 0.8033421 0.0693882 0.2030858 0.7645677 0.1625281 0.9974423 0.7796644 0.5386889 0.1402487 
0.2583351 0.4990800 0.1279620 0.5417288 0.5637728 0.9347628 0.5299039 0.3380331 0.8204917 0.9413736 0.4587455 -0.1478963 0.4511137 0.6288986 0.2424162 0.0517309 0.8572720 0.0456624 0.5651423 0.7509133 0.5825106 0.8875357 0.4035844 0.0629942 0.5944533 0.6862023 0.0508458 0.5957189 0.1223414 0.5246351 0.8495532 0.3230297 
0.6197394 0.7864315 0.6569414 0.1145360 0.9220862 0.0298166 0.3155614 0.8409986 0.1202124 0.4184393 0.0166631 0.6378368 0.4911344 0.6862087 0.2492447 0.3744011 0.8143864 0.4450209 0.3285318 0.7338786 0.8125858 0.9994507 0.3033235 0.8059023 0.5928831 0.3754997 0.6815088 0.0314341 0.2054811 0.3467818 0.4538102 0.1185644 
0.4768991 0.9963413 0.5975477 0.8225545 0.4412156 0.8702879 1.2499227 0.2841071 0.0334228 0.7128972 0.4268947 0.3044547 0.2824837 0.2278491 0.8041621 0.7115451 0.7689553 0.2606399 0.7650073 0.7851333 1.0053274 0.1495361 0.2377518 0.7964416 0.7152129 0.3281983 0.5042042 0.7130040 -0.1503784 0.3615357 0.0984084 1.0551148 
0.6605532 0.9471850 0.8113607 0.2427889 0.4157230 0.5987081 0.9403029 0.6511876 0.7941897 0.7270497 0.7131731 0.7966460 0.4541112 0.4517634 0.4607218 0.7864640 0.7966891 0.1877913 0.8712726 0.3051265 0.5849347 0.0702655 0.6907698 0.4376423 0.6601659 0.5687614 0.3205423 0.6860909 0.9843003 0.0214047 0.8388943 0.9150634 
0.1276567 1.0345209 0.4209152 0.8931642 0.6538450 0.8466875 0.0973450 0.2476951 0.0237703 0.2555093 0.8072081 0.6612957 0.8341161 0.7877071 0.9700892 0.8858139 0.7351081 0.3738075 0.7683948 0.7730793 0.5781950 0.1986327 0.5775317 0.5729648 0.1508613 0.8991761 0.7424906 0.3850054 0.2712320 0.9048360 0.5353127 0.7883795 
-0.1006010 0.6097182 0.6809290 1.0267992 0.9416791 0.8467380 0.2302011 0.1286050 0.6946013 0.3140049 0.4823145 0.8144780 0.3403424 0.3834956 0.4195380 0.8941618 0.2385330 0.5231406 0.2572100 0.0842616 0.2866907 0.1730094 0.5384991 0.7786068 -0.1772486 0.9428836 0.9740287 0.5572071 0.8840189 0.0936617 0.3301187 0.0039013 
-1.5729836 0.0265572 0.7034160 0.4949249 -1.6645602 -0.3588763 2.0892110 0.7506338 -0.4376278 -0.6143660 -0.8275788 -0.4574666 0.8778571 -1.1592626 0.8015394 -1.3752896 1.0457479 0.2251211 0.4197007 1.8772249 -0.8785486 0.3064511 0.1504224 0.0071363 0.0588473 -1.3264037 -1.3945819 -0.1147469 -0.3328670 -1.2902914 -0.2075687 -1.5201407 
-1.4857619 1.7120502 0.7645774 0.7481555 -0.1317221 0.0765219 2.7787051 0.8208446 -0.5557297 -0.0779503 -0.0809359 -0.0409292 1.0008556 0.5399009 0.7137485 -0.7974002 1.0955275 1.2567128 0.4902087 2.5538839 1.4088954 0.4382232 1.3251793 -2.0952671 -0.4624125 0.8231049 -1.6391131 1.3054027 1.8410717 -0.8428392 1.2054150 0.4178892 
-0.7818954 0.6848397 1.1165051 0.4868057 0.8717643 0.4767629 0.4510264 0.1724749 -0.9761003 -0.5665619 0.2313010 1.0728471 0.1371849 0.7899489 0.0624231 0.1368207 0.1872633 0.8746278 -0.1353657 0.1418352 0.5561876 0.8533342 0.3982906 0.1049816 -2.3557104 -0.3876997 0.8529501 0.7583474 0.3532940 -0.0785381 0.7439913 0.3037093 
2.8687288 0.3070387 0.5813191 -0.0452252 1.7278473 0.6918564 0.9976877 0.2820679 0.6553290 -0.4634868 1.2742843 -0.6306761 0.8278024 -2.1336139 -0.0729731 0.9715476 1.9333425 -0.5350669 -2.2451430 0.1167116 -0.8023017 0.5516489 0.1553322 -2.2383619 0.1141294 0.6806055 0.6519024 2.0472681 0.7686593 -0.8943561 0.5801081 0.9335017 
-0.7000340 0.5301000 0.8963431 1.3525063 0.3856641 0.7177176 0.5968917 0.3844886 -0.4116630 1.4438103 -1.1020880 1.2051521 0.8768537 0.7145647 0.3533517 2.0435766 0.6668446 0.8146588 1.0465437 0.1065992 -0.2872208 0.3922189 -0.0442835 -0.1561438 0.0411128 -0.0408391 0.8985682 0.7212370 0.2277399 0.7532847 0.4720412 0.2151913 
-0.2132803 -0.7749710 0.7435861 -0.0799245 -2.0439783 0.7641685 1.3357447 0.8441772 -0.1358915 0.4343762 -2.9057322 0.6832151 -1.0467434 1.1275235 -0.1830948 0.4429827 1.3384011 1.2158365 -1.1230836 0.7199502 -0.3804791 0.6828822 0.1014214 0.1116077 0.0162637 0.5496471 0.5237855 -0.9016963 -0.6517025 -0.0461947 -0.6802430 -1.2665609 
-0.7882124 0.9828517 3.8601650 3.1034011 0.3717986 0.3827764 0.8411842 2.1092611 -0.2874629 2.2108311 -0.8410489 -0.5963106 3.1952417 0.9042803 -0.4272501 1.8795634 0.1019627 2.4925522 0.9402392 0.5800556 -1.3883768 0.6292181 3.0136299 1.9282770 0.2831750 0.1196490 1.3948545 -0.0134217 1.0200676 -0.1311302 3.3489419 0.9249930 
-0.3672227 -0.0021312 -0.0852527 0.0303727 0.6484641 0.2511218 0.5925673 0.6706488 0.3553253 -0.5461456 0.2056963 -1.0153539 0.5580656 0.8981331 0.4633136 0.0892899 0.5043775 0.3455738 -0.0743885 0.2935914 -0.2904206 0.3148033 0.2946223 -0.0122053 -0.5165775 0.4828914 0.6180414 0.7559589 0.5791893 0.7353746 0.5160566 -0.7084857 
-0.3481536 0.6383314 1.0337974 0.5470946 0.3939007 0.0368766 0.0636501 0.5747490 -0.0892884 -0.3884918 0.3765308 0.3165241 0.6566492 0.4414880 0.1151498 -0.5791883 0.0178352 0.9182314 -0.2813518 0.5799754 -0.0734599 0.4515061 -0.0292574 0.0810760 0.4275099 -0.2352478 0.0316361 0.2587943 0.7485561 -0.4605385 0.4766597 0.0894342 
0.0078492 0.7929853 0.4249033 1.0498763 0.8232122 0.5241542 0.7151267 1.0325712 -0.1245318 -1.2049834 -0.3309243 0.4706089 0.1104628 0.6989929 0.8954279 -0.4179091 0.3627585 0.8065447 0.2470237 0.9153289 0.3592140 0.6384375 0.4043492 0.3156072 1.6171923 -0.4962699 0.0558451 0.6925810 0.7365400 -0.6905829 0.5381081 -0.0798577 
-0.2504525 3.9122189 1.4174142 2.0575671 -0.1948238 1.1141918 0.1073919 4.3530846 -0.4054548 1.5542112 0.1465794 0.2867447 1.8647712 0.4740706 0.7365277 1.0162881 0.1934804 2.4219465 0.8031597 0.9389278 0.9653949 0.2354965 1.7870343 0.4953082 0.6728628 -0.6458416 2.6870854 0.7815664 2.9965018 -0.2502694 1.0878455 0.5091315 
0.6149512 0.2209608 0.0674925 0.5417472 0.7941818 0.0695905 0.3542177 0.3305924 1.1124918 0.1702597 0.3488388 -1.1368675 0.2329214 0.1744667 0.6790294 -0.0111827 0.6242725 0.5767716 -1.1363491 0.7386728 -0.3479700 0.2033194 0.4311837 1.2259764 -0.7604215 1.4752593 0.6030345 0.9802615 0.2040538 1.8812080 0.2126111 -0.3191002 
-0.4953386 1.1347596 0.3079056 1.6011420 0.0150333 0.1946701 0.9514008 0.1793906 -0.4701845 0.0541192 -0.1580365 -0.2653067 0.9300915 0.3438939 0.4512275 -0.0975105 -0.0176115 0.9790182 0.2204126 -0.0227787 0.4712173 1.1060714 0.2006943 -0.1885511 0.1372579 -0.1375557 -0.1315395 0.9001679 0.8120833 -0.3331233 0.2713784 0.0229662 
0.4573113 0.7362218 0.3988914 0.8943928 0.1488099 0.3608702 1.1666114 0.5955228 -0.2321049 -0.3127753 -0.0941638 0.6020507 0.2390168 0.9441800 0.9401914 0.8340630 -0.0529650 0.6533380 0.2411254 0.3204120 -0.2922691 0.3224230 -0.0065096 0.0579483 1.4226881 -0.2035029 0.1229706 0.8736770 0.9920902 0.9634809 0.9052819 0.3182151 
0.5575359 0.4577844 -0.0857104 -0.0788688 0.3020603 -0.0639637 -0.1492156 0.8228564 0.7371586 -0.4883130 0.2977833 -0.1466046 0.3149246 0.3989851 0.5613867 0.0066036 1.0601339 0.6281649 0.3137992 0.6053985 0.1884902 0.5626743 0.2166114 0.3546232 -0.3275999 0.9810457 1.0237182 0.1863839 0.3600078 0.7080759 0.8202346 0.7753962 
-0.3073072 0.2500449 -0.0632488 -0.0625802 0.5399393 0.5750166 0.0690833 0.0227217 1.1951531 0.1233134 0.3200705 -0.3650552 -0.0924364 0.9172884 0.1717674 -0.0896585 0.5252399 -0.0244125 -0.6428546 0.1389841 0.4107196 0.0924755 0.6756661 0.0862858 0.0602966 0.9669076 1.0644177 0.8857762 0.6447410 0.4257507 0.2722137 -0.0114797 
0.0579926 0.4994364 0.4792930 0.8517754 -0.1256108 0.6011253 2.2364750 0.2250685 -0.4261932 0.0433681 1.3204279 -0.3770882 0.1940914 1.0874279 0.4718547 0.4214531 0.9477544 0.8744558 0.0785415 2.3649163 0.8996516 0.5583722 0.3746136 -0.2826984 -0.2960167 -0.1911394 0.3858303 1.8550211 1.5358422 -0.5795001 0.8122553 -0.3571528 
-0.5357439 0.6328682 0.6269076 -0.3760956 0.4816256 -0.8441395 0.7090902 0.2355575 0.0171664 0.2599107 -0.5727874 -0.7207724 -0.3927347 0.1612810 0.1130551 -0.6339052 0.6396756 0.6728427 -0.8632091 0.9083302 0.9554333 0.3560454 0.1332033 0.2391293 -0.1653611 -0.1629545 1.4184442 -0.0722921 0.4614280 0.0407437 0.2622732 0.3537943 
0.0100109 0.4170970 0.7404896 1.4122300 0.4245473 1.3298227 0.7335368 0.7832775 -0.9765879 0.2427918 0.4374525 0.9000825 0.1429286 0.1547872 0.8049564 0.4951788 0.2955958 0.7067460 -0.0896722 0.1102259 0.2809107 0.3421619 0.7040437 0.1759079 -0.5854558 0.0468536 0.0695827 0.9039513 0.6347976 -0.1553757 0.5655204 0.1839977 
1.2965991 1.0682327 0.6787766 0.5824631 -0.0542297 0.3614405 0.2471802 0.3725238 -0.6386850 -0.4703863 0.5183516 1.4055138 0.8925402 0.3469021 0.4031572 1.1100202 0.3619647 0.5096263 0.0317890 0.5424946 -0.1923368 0.0242877 0.7385628 -0.2351200 1.3288611 -0.6153808 0.1802536 0.0776322 0.3899590 0.9756076 0.3361117 0.3305419 
-0.5366684 1.5239657 3.4343142 2.8742981 0.9352565 0.3143712 0.2438457 1.5952189 -0.8806313 2.9423271 -1.4298680 -1.0615688 3.6858288 1.0866823 -0.1790487 1.8234361 -0.1487507 3.0048943 1.3818729 0.6697673 -0.8807271 0.2900054 3.4183257 1.2592992 -0.6000981 0.4192815 1.1273157 0.3935299 0.4768729 -0.1378476 3.4799366 0.9925994 
0.0933611 0.9522320 0.8920095 1.2740125 0.6440033 1.1591464 0.2118396 0.6160325 -0.4897728 0.1590676 -0.1101666 0.8377440 0.4952196 0.2951073 0.4357517 -0.2153123 0.3803066 0.4979377 0.2675930 0.3922220 0.2082763 0.8220721 0.4855787 0.3742705 0.6927993 0.0064035 -0.0423761 0.0624645 0.1327666 0.5675675 0.1405796 0.2348859 
0.2357488 0.2600200 1.7203317 0.3596664 -0.5193316 -0.0885163 1.6441901 1.6315536 -0.4967914 0.3665901 0.8729543 -0.6726312 1.6182440 1.3637517 0.4934103 -0.2118324 -0.1061085 1.0669198 0.6408393 1.9007717 0.3248125 0.4030403 0.7513690 -0.5016638 -0.6398946 0.4328098 -0.0076372 0.1525290 0.7693997 -0.1970154 1.6996231 0.1404164 
-0.6593197 0.1853407 0.5622587 0.0971014 0.8111840 -0.0690024 0.3681886 0.5779058 0.6717845 -0.3107882 -0.0525230 -0.1602724 0.2424121 1.1785065 0.3178774 0.4080543 1.1629265 0.1872301 -1.0917296 0.3787415 0.5854959 0.9558437 0.9042635 0.7046496 -0.4628498 0.2111716 0.4638434 0.7227664 0.1959749 0.1964760 1.0316358 1.1106505 
-1.2261032 0.4212496 0.7544517 0.2367581 2.7611822 1.4674418 0.3316916 0.7090310 -0.5338862 0.1815735 0.6107013 -0.4475615 0.5580459 1.7186907 2.8203009 2.3636511 4.1692754 0.5993121 0.3638505 0.3059509 1.0243951 0.6807925 0.8694309 4.4209371 -0.2818277 0.6602115 1.6699455 3.2010349 0.3680526 1.2131132 0.7124874 0.8471252 
0.5503707 1.3926057 -0.2253986 -0.8020468 1.7652475 -1.8966895 0.0482711 1.3487426 -0.5393397 -3.2526150 1.0222659 2.1226568 0.1730184 -1.9390910 0.6823490 -1.2616393 -0.6074794 1.7752748 -1.2506034 0.7025517 0.5459842 1.7528844 1.3357666 0.1385537 0.0963829 0.1575095 -0.0630672 1.5522798 -0.4687940 0.2768886 0.3724080 -0.0586192 
0.0444884 -0.1584453 0.1765351 0.0623930 0.9226836 -0.1092723 0.0309046 0.4966436 1.5233281 -0.4809322 0.2515119 -0.4469710 0.6862739 0.8462064 0.4956508 0.4216676 0.6202061 -0.0388173 -0.0851072 0.2165926 0.0322039 0.0557617 1.0036789 -0.1923037 -0.2104654 1.4940083 0.7380795 0.4552210 0.8855017 0.7961335 0.9579951 0.3654135 
-0.3795022 0.5170569 0.1162856 -0.4396331 0.8998921 1.3856069 0.6695257 0.5793774 0.6209697 -0.1976177 0.5168464 -0.7845041 0.3272719 0.2993719 0.8543154 1.7946601 1.1126068 0.4757763 0.0166283 0.2469753 0.8729474 0.3470168 0.4619604 -0.7321141 -0.3947175 0.6179015 0.6637413 2.3109293 0.9468571 0.6987088 1.0133722 0.0646654 
1.0512579 0.2567895 0.6326037 0.0798191 0.8535098 0.3971404 0.5252740 0.7190320 1.6489633 -0.2657930 1.2579546 0.9579647 0.7269245 0.5317857 0.7497100 -0.0100674 0.7709129 0.4781968 0.7492174 0.6219090 1.1153413 0.6472416 0.4018234 0.5801170 -0.6168018 1.5030317 0.0820530 0.2993630 0.6558499 0.9417000 0.4122632 1.3014068 
-0.3030896 -0.4708986 0.4744552 -0.7660695 -0.7622158 0.6872359 0.9554968 -2.4369526 -0.1948515 -0.5238731 -1.7013730 -0.9917223 0.7482504 0.8777772 3.0668423 0.7543800 -1.3267070 -2.2497145 2.0601584 0.8981337 -1.7376134 0.4970770 -1.7477674 -2.1247183 -0.8200389 0.2711122 0.4587864 0.8718648 -0.8102462 -1.4596201 0.4633920 -1.4481060 
-0.3926236 0.7880728 1.0385899 0.9565590 0.5983171 0.4009621 0.5614597 0.5050670 -0.1292700 -0.4316118 0.1989335 -0.2798460 0.8397736 0.5719438 0.5071646 -0.0928542 0.0652945 0.1138928 0.1245829 0.1340964 -0.0535722 0.6799475 0.7999764 0.4433339 0.5022054 -0.1561686 0.8937489 0.2442632 0.1157632 0.2014494 -0.0330707 -0.1777691 
-0.1505776 -0.0132647 0.0973699 0.0929861 0.0308955 0.1907810 -0.0361783 0.2091901 0.1584320 -0.3726634 0.0129760 -0.0975111 0.7629068 0.5449321 0.9439127 0.2896855 -0.2572964 0.5143351 -0.2272473 0.5111308 0.1760179 0.2915287 0.5906944 -0.4670662 -0.2979846 0.5768131 -0.6158659 0.1099105 0.6286172 -0.4211028 0.5578756 0.1684685 
-0.7179645 -3.1572299 0.3721794 -0.2803699 -1.7040636 0.3346107 0.0610169 -0.2621568 
1.2192110 1.1577379 1.8307156 1.0673675 -0.1616546 0.7025817 0.7113627 -2.0327078 
0.4595044 2.2567537 -0.2316768 1.7256795 0.6564082 0.9430647 1.1700232 -0.7786671 
0.8898417 2.3065610 0.2737096 0.7467298 -0.2615004 0.7482792 1.2120605 -0.1683831 
-0.1221523 0.5122751 1.0504976 -0.7426795 -1.1770436 0.3727555 -0.2014634 5.0718065 
2.5142588 1.4411293 1.1408702 1.3328893 -0.3715603 0.0983623 1.4968591 -1.2458896 
1.7923090 -1.1600182 0.1248728 -0.8561409 -1.0126129 -1.2793424 -1.5998247 -4.1945399 
2.2796370 2.1551223 1.7967895 2.0348120 1.0557795 0.9909585 2.0523095 1.1156700 
-0.8055026 0.3000260 -1.1031236 -1.0529448 -6.9059272 -5.1142919 -0.7498283 -0.2157751 
0.2884280 1.8666038 -0.1663643 -0.0502367 0.3730126 0.3763378 -0.0280081 -0.3221843 
-0.2482045 -4.0974906 -0.8324734 -0.8059659 -0.4410390 -1.1223360 -0.4531703 0.0850846 
0.0487389 -1.9060054 -0.9584001 -0.0113147 -3.6843444 -1.4518319 0.3993109 0.3279931 
1.2070217 2.2040191 -0.2090701 1.4542855 0.2231291 0.7967558 1.5247858 -0.0612684 
3.8491021 1.5412206 -0.2918767 0.9245950 0.0695042 0.5425019 1.7369365 -1.0499410 
1.7027267 0.0788664 0.3482827 1.0430407 2.9104993 -2.2104683 -0.1320581 3.8899007 
1.3296615 3.0043459 1.0725094 0.7177979 0.1818609 0.7571776 0.7874118 1.1827522 
1.2194472 0.2588920 -1.2244224 1.3340170 -1.5136891 -0.0712898 0.4187203 1.6272682 
1.2492725 2.4874805 2.7016175 1.8401200 0.5442371 1.0622070 2.3387279 0.3316966 
-0.6716096 0.0757066 -0.4008109 0.0788363 1.8009386 0.1897777 0.0639837 0.2360985 
1.5907824 0.1402666 1.5461076 -0.0801222 -0.5836251 -0.3202726 -0.5433101 -3.6524392 
3.6869941 0.4896823 -0.5223801 0.2094411 -1.2050058 0.3391040 0.1140487 0.7862261 
2.1386649 -0.3045725 0.6912834 1.7250928 1.2780755 1.3491691 1.4874397 0.7647967 
1.1404327 1.4208496 0.0703426 1.4842782 0.0194656 1.0047508 1.9602626 1.2450105 
0.5932917 2.0655789 0.3108437 1.6575144 2.4380579 -0.0129356 1.4606009 4.8771691 
-1.3069791 -6.6661332 0.4817845 -0.4299167 -1.3152348 -1.7121551 0.0028633 0.3004195 
-0.1917935 0.0981609 0.0188772 -0.0531202 -5.9010724 -8.6586226 -0.0061153 -0.2184849 
0.0548912 1.2991011 2.0351369 1.1715401 -0.1748061 0.7459688 1.2777644 0.0966690 
2.0266275 0.1818707 -0.3172891 -0.8179779 -0.8898682 0.1954082 0.5567783 5.4756203 
2.4163879 1.4580115 -0.0177013 1.0989423 -0.1187463 0.3732360 0.9975117 0.9914981 
-0.7725502 -1.6128187 -0.7950423 -0.8265840 -5.4099813 -4.0677653 -0.7386339 -0.2980849 
1.3745159 2.0899929 -0.5031277 1.3016906 0.7170637 1.2083520 1.2077950 -0.8277547 
0.3814808 2.3442207 1.9634204 0.3114171 -0.9572821 -1.2500244 0.4101433 0.2215650 
----------Biases------------
0.1295503 -0.2757531 -0.7134502 0.6543276 0.1083661 0.2445624 0.6750587 -0.4904911 -0.6295675 0.8736503 -0.8858875 1.0422377 -0.0394809 -0.8453062 -0.0263801 0.0674625 0.8847500 -0.6961906 -0.1976684 -0.4933590 -0.5206287 -0.7388564 -0.6519860 -0.3479119 0.5451537 -0.0952433 -0.7064366 0.7417352 0.5479694 1.0677163 -0.9059252 0.8253226 
1.8117658 0.1697507 0.8460807 -0.1871874 -0.5958752 0.4542688 -0.2966200 -0.8407385 -0.7295108 -1.0571576 0.2378231 -2.8895877 -0.4245083 0.4377595 0.1930218 -0.3253106 -0.0179905 0.8644696 0.6915910 -0.9214731 -0.1744082 -0.3914559 -0.0096882 -0.6136159 -2.3510448 1.4971920 -0.1451573 1.0207900 -0.4593575 0.2902767 -0.3750228 1.2590179 
2.4780945 -2.0785650 3.0668289 0.2539506 13.2497847 15.3925197 0.0286779 0.7652267 
